#include <stdint.h>

const int32_t ds_cnn_s_layer_12_fc_bias[12]
    = { 93, 131, -99, -72, 175, -19, 2, -77, -6, -51, -3, 22 };

const int8_t ds_cnn_s_layer_12_fc_weights[768] = {
    -127, -91,  -104, -98, 62,   77,   -73,  -12,  -97, -87,  -64,  -65,  -60,
    -93,  -30,  -3,   -29, -99,  -86,  50,   -26,  1,   60,   -93,  25,   -77,
    -58,  -66,  -98,  -36, -51,  -86,  -37,  -94,  -57, -62,  -104, -108, 63,
    82,   -111, 39,   -99, -113, -101, -34,  -124, 70,  -118, 59,   59,   -107,
    54,   -72,  -75,  -95, 38,   -9,   -101, 51,   -88, -65,  -44,  -94,  -28,
    -3,   44,   -36,  24,  -29,  -38,  16,   -11,  45,  64,   -19,  -41,  -11,
    19,   -7,   55,   -54, 15,   -26,  -24,  -34,  -13, -15,  4,    26,   80,
    39,   -4,   23,   47,  28,   -1,   -11,  23,   42,  -58,  31,   3,    8,
    -42,  -5,   -9,   -20, 10,   56,   -13,  -22,  -43, -56,  38,   -27,  -5,
    33,   -31,  40,   5,   -35,  34,   -38,  -22,  27,  48,   -16,  15,   -22,
    -46,  -23,  -54,  -12, -21,  -16,  21,   -29,  60,  78,   -58,  -27,  -9,
    -27,  -47,  38,   30,  22,   63,   -20,  58,   -54, 76,   40,   34,   58,
    -62,  -32,  -45,  58,  -57,  -21,  -50,  -45,  -9,  -44,  -13,  -10,  44,
    9,    -16,  34,   -13, -42,  71,   61,   14,   -66, -29,  26,   23,   16,
    -53,  -40,  -37,  -67, -17,  -51,  -39,  -76,  -34, -37,  -37,  36,   -36,
    -7,   -14,  -35,  57,  -32,  7,    -58,  -7,   -39, -1,   57,   -55,  -48,
    -55,  51,   46,   18,  -58,  -40,  37,   -44,  -39, 43,   -36,  -48,  -82,
    -42,  -63,  10,   13,  -7,   52,   -66,  -32,  40,  -28,  1,    49,   35,
    31,   55,   -5,   -26, -28,  -51,  -37,  15,   -4,  -62,  37,   -65,  45,
    57,   -10,  11,   -20, -3,   32,   9,    47,   39,  56,   -65,  12,   65,
    54,   -13,  -53,  40,  -58,  56,   -27,  -33,  5,   -37,  -35,  -30,  -15,
    33,   -63,  -58,  -50, 16,   29,   -25,  -51,  -43, 57,   -38,  -13,  -26,
    -57,  -57,  46,   15,  -25,  -45,  35,   -21,  11,  -24,  -31,  -27,  69,
    -51,  14,   -49,  49,  -45,  41,   14,   -29,  18,  51,   2,    -8,   -32,
    47,   10,   -38,  -8,  -56,  -2,   -72,  -11,  -28, -46,  12,   -49,  -14,
    -12,  3,    38,   -60, -30,  -41,  -50,  47,   -24, 38,   -30,  -43,  -30,
    45,   7,    51,   -18, 3,    5,    -27,  -33,  -4,  40,   -38,  46,   49,
    -68,  -29,  57,   34,  16,   -35,  18,   33,   -13, 47,   29,   -14,  -37,
    -21,  -4,   -9,   32,  -58,  59,   -41,  37,   -65, -65,  52,   11,   -53,
    -59,  -33,  -57,  49,  39,   45,   41,   -6,   -14, -35,  54,   -13,  -26,
    -18,  45,   65,   28,  19,   4,    16,   -41,  49,  63,   -23,  24,   5,
    -48,  -10,  -52,  17,  -53,  23,   30,   -58,  -23, 29,   -22,  -83,  57,
    -8,   63,   -45,  -46, -29,  -38,  -26,  -23,  -51, 33,   -48,  16,   -12,
    19,   2,    -24,  -55, -48,  -26,  63,   -17,  -48, 36,   27,   51,   -56,
    56,   40,   -69,  -79, -60,  -65,  -68,  75,   27,  52,   -3,   -27,  50,
    -61,  -1,   30,   -50, 30,   42,   -48,  -67,  39,  37,   -69,  -34,  87,
    -40,  -9,   -11,  4,   -49,  40,   -11,  33,   65,  -27,  27,   26,   -61,
    -49,  -67,  -39,  -10, -43,  41,   -19,  -57,  -65, -76,  -4,   65,   69,
    -62,  -37,  -18,  -14, -38,  21,   -18,  24,   -35, 61,   27,   -81,  -16,
    30,   -10,  -29,  -31, -18,  24,   -85,  62,   -3,  -31,  21,   -63,  -66,
    -54,  18,   42,   -25, 70,   53,   -30,  -28,  51,  4,    -62,  -60,  46,
    -34,  -50,  61,   -29, 14,   -5,   -55,  48,   -54, 68,   -7,   13,   -7,
    -13,  11,   63,   -72, 38,   -19,  49,   47,   -26, -77,  -25,  -54,  -42,
    28,   -19,  8,    -20, -62,  -1,   61,   -53,  -48, -20,  10,   -42,  -60,
    -11,  48,   15,   -47, 62,   -25,  -11,  -45,  -17, 26,   -60,  -57,  -17,
    44,   -67,  -29,  11,  14,   71,   41,   39,   69,  -43,  -29,  -47,  -12,
    -16,  5,    45,   -76, -66,  -58,  8,    -14,  -35, -41,  30,   -72,  -43,
    26,   35,   -2,   -38, -26,  34,   -22,  48,   -7,  -17,  -20,  -17,  -29,
    56,   -3,   32,   19,  -37,  55,   27,   -57,  24,  41,   8,    -34,  -44,
    -1,   -75,  -63,  -44, 5,    -76,  12,   -47,  -43, -40,  50,   -66,  -64,
    -36,  -40,  -48,  -36, -25,  -17,  -18,  -30,  -53, 37,   -55,  -28,  -51,
    -2,   -19,  -36,  9,   -30,  39,   53,   9,    -68, 57,   -26,  -29,  35,
    21,   24,   -34,  33,  -79,  -21,  40,   -42,  75,  -54,  76,   -25,  40,
    -26,  14,   60,   14,  -60,  66,   -72,  -47,  2,   68,   55,   45,   38,
    44,   -24,  -25,  3,   6,    -17,  41,   -6,   26,  -5,   26,   -46,  -4,
    -30,  28,   44,   -53, -59,  -72,  -36,  -29,  -38, -19,  76,   -16,  -53,
    -5,   -53,  -35,  19,  31,   64,   -23,  -20,  -49, -33,  18,   25,   -26,
    59,   20,   -34,  18,  -74,  -38,  3,    -32,  58,  -25,  -38,  44,   23,
    33,   -22,  3,    -10, -10,  36,   -6,   31,   -55, 21,   40,   42,   -38,
    62
};

const int32_t ds_cnn_s_layer_1_conv2d_bias[64]
    = { 438, 752,  -239, 446,  -444, 1529, -99,  109, 627, 184, -152, 462, 255,
        574, -168, 92,   -80,  562,  -497, -118, 181, 195, 244, -531, 595, -358,
        554, 519,  252,  -93,  -182, -50,  172,  440, 498, 204, 591,  37,  336,
        249, 350,  328,  794,  1021, 673,  1087, 45,  400, 182, 378,  382, 511,
        229, 215,  179,  -348, 222,  384,  -150, 195, 36,  70,  219,  600 };

const int32_t ds_cnn_s_layer_1_conv2d_output_mult[64]
    = { 1346044985, 1772008588, 1601623147, 1913185096, 1319270130, 1635700235,
        1674645479, 1528600815, 1090466823, 2107911315, 1402028773, 1190264010,
        1961866651, 1226775176, 1372819840, 1513996349, 1174442505, 1630832080,
        1182961777, 1835294609, 2005680050, 1689249945, 1134280223, 1645436546,
        1148884689, 1684381790, 1387424307, 1533468970, 2132252092, 1974037040,
        1533468970, 1535903048, 1436105861, 1277890809, 1791481210, 1713590723,
        1591886836, 1270588576, 1752535966, 1462880716, 1830426454, 1158621000,
        1411765084, 1869371697, 1835294609, 2103043159, 1579716447, 1667343246,
        1922921407, 1238945565, 1212170710, 1752535966, 1202434399, 1187829933,
        1983773351, 1504260038, 1487221494, 2088438693, 1178093622, 1735497422,
        1153752844, 1320487169, 1594320914, 2005680050 };

const int32_t ds_cnn_s_layer_1_conv2d_output_shift[64]
    = { -7, -8, -8, -8, -8, -9, -7, -7, -8, -8, -7, -7, -8, -7, -7, -7,
        -6, -8, -8, -8, -8, -8, -7, -9, -7, -8, -7, -8, -8, -7, -7, -7,
        -7, -7, -8, -7, -8, -8, -8, -6, -8, -7, -8, -9, -8, -9, -7, -7,
        -8, -7, -8, -8, -7, -7, -7, -8, -7, -8, -8, -7, -7, -6, -7, -8 };

const int8_t ds_cnn_s_layer_1_conv2d_weights[2560]
    = { 89,   14,   1,    32,   53,   -8,   -2,   24,   70,   -25,  15,   -23,
        30,   -14,  -22,  -54,  6,    -52,  -18,  -14,  20,   -38,  -12,  -38,
        17,   19,   34,   -10,  -12,  34,   51,   -47,  -76,  52,   19,   -27,
        -127, 24,   35,   -35,  -40,  -25,  11,   -13,  -50,  20,   55,   0,
        -127, 89,   106,  7,    -112, 75,   98,   0,    -44,  45,   12,   31,
        26,   -22,  -73,  -65,  17,   -28,  -81,  -81,  42,   -30,  -63,  -67,
        49,   -29,  -29,  -23,  48,   -10,  45,   -32,  -38,  -50,  -54,  -97,
        34,   3,    -30,  -109, 33,   -3,   -46,  -127, -21,  0,    -16,  36,
        2,    -41,  2,    20,   43,   -29,  -71,  -58,  20,   -46,  -97,  -69,
        12,   18,   -50,  7,    -44,  -14,  29,   36,   -25,  -1,   60,   92,
        -58,  127,  97,   -41,  29,   42,   113,  -59,  42,   95,   125,  42,
        -14,  -83,  77,   86,   -56,  -83,  -73,  23,   92,   -40,  -121, -104,
        40,   62,   -56,  -17,  0,    45,   24,   25,   -36,  -12,  21,   -14,
        -9,   -27,  -19,  -64,  5,    36,   -78,  50,   -31,  63,   -9,   72,
        -44,  10,   -2,   45,   -29,  -30,  -28,  95,   12,   -48,  11,   105,
        28,   -29,  -20,  127,  10,   -77,  -13,  36,   -19,  -31,  -25,  31,
        -37,  -50,  -38,  15,   -28,  -42,  -24,  56,   -57,  34,   60,   -45,
        -15,  124,  33,   -32,  78,   126,  52,   -6,   69,   107,  24,   46,
        55,   65,   -9,   25,   93,   -11,  -43,  16,   122,  -127, 34,   -65,
        22,   -17,  25,   -107, 6,    -15,  2,    -66,  -40,  -34,  81,   -43,
        4,    26,   16,   -22,  53,   3,    -44,  46,   53,   19,   -109, 98,
        17,   14,   -121, 89,   42,   -32,  -79,  41,   6,    25,   -22,  21,
        56,   20,   7,    46,   22,   -21,  -100, 55,   -29,  -33,  -127, 51,
        -4,   -29,  -71,  60,   -28,  -10,  -54,  73,   -23,  4,    -15,  23,
        -23,  8,    72,   27,   15,   -52,  35,   10,   -37,  -35,  -34,  28,
        -29,  26,   15,   61,   67,   102,  127,  -52,  57,   22,   -6,   -85,
        14,   -10,  -32,  -51,  22,   13,   -66,  -37,  -23,  -126, -7,   -28,
        -32,  -75,  88,   -11,  -60,  18,   82,   33,   -69,  55,   127,  -4,
        4,    123,  83,   -34,  50,   80,   15,   -33,  3,    2,    -65,  -27,
        -16,  6,    -16,  -100, 73,   54,   -37,  -76,  34,   46,   -40,  -70,
        -14,  66,   -31,  -94,  -36,  32,   -64,  -30,  25,   16,   -102, -81,
        80,   69,   -111, -99,  83,   12,   -52,  -93,  61,   -49,  -28,  -84,
        32,   -10,  49,   -81,  -13,  -17,  31,   -55,  -10,  -48,  53,   95,
        -12,  -55,  41,   127,  -7,   127,  6,    2,    3,    66,   34,   34,
        -31,  -20,  -37,  57,   31,   -86,  20,   22,   28,   -60,  -27,  -34,
        -33,  -63,  -38,  62,   -30,  -18,  13,   5,    -8,   2,    -49,  -37,
        9,    63,   -2,   -42,  37,   -6,   59,   -61,  65,   59,   -6,   24,
        36,   19,   -19,  21,   16,   -3,   -6,   -45,  30,   27,   -51,  -45,
        -13,  38,   -23,  -30,  -48,  -11,  -24,  19,   -75,  -27,  3,    75,
        -35,  -19,  76,   93,   -70,  -44,  114,  123,  -81,  -24,  20,   127,
        -60,  -86,  -127, 64,   -83,  -84,  -99,  22,   -40,  -47,  -4,   60,
        8,    -27,  63,   59,   31,   45,   84,   10,   84,   40,   84,   16,
        22,   32,   34,   -50,  9,    53,   1,    -51,  1,    79,   41,   -17,
        25,   13,   17,   -6,   39,   12,   12,   -13,  22,   17,   24,   35,
        -39,  31,   48,   16,   -19,  57,   24,   -35,  22,   67,   -22,  -127,
        37,   11,   -50,  -122, 34,   -40,  -22,  -72,  -6,   -34,  22,   18,
        -40,  -36,  10,   69,   -54,  -30,  -7,   66,   -36,  59,   -17,  19,
        29,   46,   -51,  34,   78,   1,    -87,  31,   24,   -70,  -60,  30,
        -28,  -87,  -22,  40,   -47,  -61,  104,  37,   -11,  -15,  127,  -22,
        -34,  17,   98,   -77,  -16,  69,   -15,  -49,  33,   48,   -81,  24,
        -50,  -15,  -31,  78,   -68,  -2,   74,   0,    -51,  36,   127,  -78,
        34,   53,   63,   -94,  60,   -59,  -9,   -89,  30,   -67,  -116, -51,
        11,   -7,   -71,  -82,  -16,  65,   19,   -82,  -19,  45,   -19,  -10,
        -7,   -13,  25,   80,   -46,  21,   127,  43,   -99,  34,   114,  13,
        -53,  -7,   92,   75,   27,   -14,  16,   50,   17,   -29,  -8,   16,
        49,   -23,  -90,  2,    26,   -28,  -80,  -37,  8,    -31,  -51,  -59,
        34,   13,   -78,  -62,  47,   47,   -33,  -82,  21,   -35,  -1,   9,
        3,    -47,  -69,  61,   -9,   -70,  -110, 10,   -27,  -48,  -121, -65,
        -2,   5,    -69,  -120, 22,   1,    35,   -127, 25,   17,   62,   -98,
        8,    68,   46,   -39,  45,   94,   -3,   -35,  39,   82,   32,   21,
        -61,  -18,  64,   97,   -52,  103,  92,   -24,  -87,  -114, 25,   -48,
        -38,  -66,  52,   -43,  -58,  15,   14,   33,   105,  78,   31,   -52,
        58,   -6,   -10,  2,    -16,  -54,  -86,  42,   -1,   -53,  -127, 46,
        9,    -109, -110, 21,   -47,  107,  -15,  -57,  18,   60,   -31,  -95,
        6,    61,   -62,  -127, 26,   28,   -41,  -58,  21,   -23,  -29,  42,
        -40,  -22,  60,   63,   -42,  -50,  35,   60,   -18,  -40,  40,   12,
        43,   -75,  57,   47,   33,   -42,  -15,  99,   127,  44,   95,   86,
        100,  32,   69,   55,   50,   50,   34,   11,   54,   34,   89,   40,
        7,    11,   49,   68,   10,   47,   -32,  -40,  4,    -31,  -106, -86,
        -23,  -28,  -105, -74,  -112, -111, -117, -21,  -103, -75,  -86,  26,
        -16,  -12,  3,    29,   14,   -67,  41,   42,   3,    -50,  76,   43,
        -45,  43,   1,    -30,  -50,  127,  -13,  -70,  73,   41,   101,  -33,
        67,   5,    67,   -19,  42,   -28,  -21,  -26,  -38,  8,    -42,  -41,
        -93,  31,   30,   9,    1,    -42,  -14,  69,   5,    -6,   -46,  -22,
        22,   -7,   -74,  -42,  61,   61,   -43,  15,   -7,   29,   60,   85,
        -4,   -25,  50,   2,    -61,  -49,  -49,  -62,  -37,  -73,  -14,  -107,
        -70,  97,   54,   -31,  -39,  111,  127,  21,   -15,  42,   -80,  23,
        -81,  15,   -29,  66,   -83,  -63,  33,   81,   -125, -65,  -26,  23,
        -54,  -18,  -79,  19,   -55,  36,   -76,  18,   -15,  -62,  -74,  -14,
        7,    -127, -63,  -1,   23,   -110, -15,  17,   6,    37,   -17,  76,
        24,   -39,  -21,  78,   57,   -26,  -44,  80,   80,   30,   -104, 62,
        54,   62,   -122, 41,   -37,  109,  -63,  8,    -58,  34,   30,   -34,
        -64,  -52,  127,  -91,  -35,  -46,  96,   -72,  1,    -25,  86,   -56,
        25,   -22,  98,   -58,  -20,  -6,   -92,  -116, -8,   34,   -42,  -127,
        11,   28,   -46,  -85,  45,   -8,   -31,  13,   19,   -13,  -28,  -20,
        38,   19,   14,   -10,  61,   19,   7,    -53,  31,   -39,  30,   24,
        -13,  -90,  10,   14,   9,    -91,  72,   61,   41,   -19,  37,   -72,
        127,  14,   13,   -81,  124,  66,   20,   -53,  49,   5,    29,   10,
        -60,  42,   -44,  74,   -107, 2,    -104, 79,   -97,  -17,  -49,  30,
        -58,  -49,  -5,   33,   -104, -34,  41,   4,    -43,  20,   24,   -9,
        -29,  -25,  17,   38,   -49,  -29,  29,   29,   -44,  18,   81,   -66,
        -69,  79,   54,   -127, -47,  126,  -13,  -96,  0,    22,   -61,  -54,
        18,   2,    -65,  -21,  53,   -10,  -13,  -14,  71,   -33,  43,   -8,
        68,   -17,  8,    27,   -50,  -20,  -15,  50,   -48,  19,   -40,  44,
        -39,  28,   -30,  11,   -30,  -15,  -16,  -13,  -19,  -45,  94,   -15,
        -3,   -18,  127,  -11,  5,    -21,  122,  -11,  28,   -21,  107,  -9,
        -3,   11,   94,   4,    26,   -12,  67,   20,   -51,  29,   -16,  23,
        -60,  35,   57,   42,   -32,  -3,   99,   8,    43,   -65,  75,   2,
        49,   -43,  -24,  -93,  48,   -4,   -42,  -70,  15,   33,   8,    17,
        19,   -53,  -11,  89,   -30,  -18,  17,   127,  5,    60,   12,   114,
        -14,  -58,  12,   -12,  -2,   27,   15,   43,   -21,  66,   43,   -14,
        30,   18,   -19,  45,   -18,  -103, 11,   65,   58,   -16,  33,   -70,
        40,   11,   -41,  -127, 4,    -1,   -1,   -22,  34,   -2,   -14,  -7,
        6,    -22,  -41,  20,   -13,  33,   -99,  30,   -9,   4,    -85,  28,
        15,   -24,  -127, 47,   22,   -50,  -86,  13,   31,   -28,  -31,  -78,
        42,   31,   27,   -69,  51,   -25,  66,   3,    19,   -36,  73,   -8,
        28,   5,    82,   -32,  41,   34,   80,   -60,  12,   -53,  27,   66,
        4,    -25,  -13,  8,    11,   -5,   -4,   -105, 14,   45,   -2,   -127,
        32,   54,   27,   -82,  -4,   27,   50,   -5,   -9,   22,   6,    -9,
        -12,  3,    -8,   -16,  26,   -5,   -36,  -39,  42,   -12,  -15,  -17,
        21,   22,   52,   -46,  39,   -19,  26,   13,   -11,  -21,  -28,  103,
        -19,  -44,  -64,  127,  -30,  -29,  -55,  -9,   21,   4,    -1,   -47,
        14,   38,   66,   -58,  -13,  50,   35,   -20,  2,    43,   -7,   25,
        -19,  24,   -50,  27,   -54,  51,   38,   -72,  -39,  25,   32,   -26,
        -39,  69,   36,   11,   -42,  51,   87,   -30,  -9,   18,   75,   11,
        -11,  -17,  30,   59,   -20,  -37,  12,   81,   21,   -16,  -20,  78,
        -6,   -51,  35,   127,  16,   -31,  46,   105,  2,    -17,  49,   -40,
        54,   -25,  5,    58,   25,   -51,  4,    127,  5,    -48,  -62,  83,
        28,   30,   -33,  -60,  46,   42,   -50,  -109, 22,   9,    24,   26,
        2,    7,    51,   111,  -8,   25,   24,   53,   41,   28,   -23,  -7,
        42,   -45,  41,   -74,  -38,  2,    -19,  -122, 2,    -38,  45,   -60,
        56,   -28,  103,  0,    64,   -73,  118,  22,   -4,   -66,  6,    37,
        -30,  4,    0,    37,   -22,  65,   -86,  73,   -32,  127,  -104, 54,
        -18,  105,  -103, -22,  25,   -55,  -6,   58,   -17,  -31,  -82,  -13,
        -14,  1,    -47,  -22,  26,   22,   -26,  -14,  16,   31,   11,   14,
        -29,  -27,  -15,  0,    -45,  -127, -18,  114,  -20,  -46,  9,    118,
        -53,  6,    63,   0,    -40,  37,   51,   15,   19,   15,   113,  -76,
        -61,  28,   80,   -93,  -112, 30,   101,  -107, -27,  58,   48,   -42,
        -51,  18,   4,    28,   -44,  39,   -6,   105,  -34,  7,    -83,  127,
        70,   -13,  -64,  85,   81,   -38,  -32,  70,   89,   -30,  11,   25,
        -23,  13,   -16,  6,    0,    -11,  15,   24,   13,   -11,  23,   9,
        20,   -7,   9,    -11,  -3,   5,    -26,  1,    -14,  6,    -4,   17,
        -29,  30,   34,   52,   -16,  16,   4,    -27,  17,   -11,  -21,  -127,
        40,   3,    -24,  -109, 73,   -21,  70,   68,   121,  -26,  19,   -10,
        102,  -3,   -20,  -46,  -7,   -13,  39,   -55,  -51,  -71,  53,   -42,
        -98,  19,   14,   -89,  -47,  48,   21,   -100, 31,   76,   31,   -127,
        -60,  95,   -49,  -76,  -82,  -24,  -33,  7,    -1,   75,   13,   0,
        18,   30,   23,   -12,  52,   20,   48,   20,   3,    21,   66,   6,
        2,    8,    86,   21,   5,    -1,   32,   22,   25,   -36,  -41,  -3,
        -2,   -28,  -77,  14,   -4,   -56,  -127, -7,   -24,  -44,  -118, 16,
        39,   39,   -10,  -17,  -12,  30,   38,   12,   -1,   35,   57,   21,
        -7,   17,   19,   74,   -16,  0,    40,   91,   -4,   45,   47,   100,
        -3,   57,   -34,  33,   4,    -24,  -27,  -39,  9,    -36,  -70,  -127,
        -9,   -30,  -98,  -120, 53,   71,   20,   -81,  -14,  37,   -37,  39,
        -20,  104,  -52,  4,    33,   114,  4,    50,   64,   94,   -80,  -45,
        127,  59,   -54,  -58,  1,    -58,  -32,  -31,  -36,  -101, 92,   -5,
        -103, -50,  92,   -17,  -118, -115, 37,   -90,  45,   -41,  -102, 28,
        11,   -26,  -62,  34,   -48,  -3,   -58,  -65,  -92,  30,   -57,  -101,
        -120, 56,   8,    -71,  -90,  12,   17,   -116, 14,   50,   33,   -50,
        77,   39,   60,   23,   25,   6,    114,  49,   63,   -20,  127,  20,
        51,   28,   -20,  46,   27,   8,    -25,  12,   -5,   66,   -17,  -3,
        -81,  127,  33,   11,   -54,  92,   -16,  21,   -75,  -31,  -65,  99,
        -53,  -45,  -55,  126,  -45,  -18,  -20,  112,  39,   0,    -14,  62,
        86,   -20,  -35,  -8,   17,   -23,  -7,   4,    -11,  1,    -18,  57,
        41,   40,   -9,   84,   100,  -5,   -73,  25,   127,  25,   -8,   48,
        84,   70,   88,   45,   10,   10,   89,   -5,   25,   -19,  12,   -82,
        16,   -59,  -30,  -86,  -22,  -36,  14,   -59,  -3,   -20,  1,    -56,
        -37,  2,    38,   -121, -5,   44,   22,   -86,  118,  51,   -29,  10,
        127,  11,   -73,  72,   49,   -49,  6,    72,   13,   -14,  6,    -14,
        -25,  23,   -12,  -42,  -13,  19,   -38,  20,   -29,  -9,   -25,  66,
        74,   127,  -9,   -35,  64,   72,   20,   -65,  71,   29,   40,   -53,
        26,   10,   34,   1,    -23,  -10,  6,    4,    0,    -41,  11,   30,
        -23,  -32,  4,    112,  -37,  -7,   8,    48,   -4,   -61,  -69,  -21,
        -39,  -46,  -14,  -50,  0,    -28,  15,   77,   3,    -37,  -43,  80,
        33,   -36,  -54,  127,  12,   5,    -62,  122,  11,   16,   -2,   82,
        32,   91,   24,   -36,  -3,   80,   45,   -110, -34,  15,   56,   -95,
        -76,  -27,  14,   -80,  -41,  -34,  34,   -41,  -18,  -70,  -25,  59,
        -65,  -116, -127, 54,   0,    -118, -61,  121,  61,   -1,   -55,  119,
        59,   -21,  -104, 125,  50,   17,   -99,  120,  -10,  122,  -97,  26,
        52,   93,   -34,  -61,  37,   55,   -44,  -38,  45,   -8,   -44,  -9,
        -30,  -16,  67,   80,   35,   -44,  -29,  104,  24,   -28,  -82,  5,
        -18,  -36,  -98,  -122, 35,   20,   -76,  -122, 103,  59,   7,    -73,
        62,   89,   79,   5,    -22,  37,   127,  29,   -55,  31,   115,  16,
        -9,   4,    52,   48,   11,   -26,  -17,  18,   18,   -24,  -17,  -27,
        -9,   -8,   27,   -12,  17,   -8,   23,   58,   79,   -18,  -61,  40,
        86,   -16,  -127, -17,  21,   32,   -68,  9,    -19,  67,   68,   2,
        -54,  106,  51,   -49,  -40,  -2,   0,    -92,  17,   -23,  -1,   -67,
        68,   -56,  -8,   -90,  60,   -55,  -24,  -80,  83,   -21,  -30,  -21,
        54,   2,    -46,  -7,   -3,   -9,   -9,   37,   -42,  3,    20,   56,
        -68,  36,   25,   20,   -100, 62,   63,   11,   -127, 63,   11,   41,
        12,   11,   -15,  1,    7,    -1,   2,    -10,  -27,  -26,  30,   1,
        -9,   -35,  42,   61,   -18,  0,    52,   110,  2,    14,   59,   127,
        -7,   24,   -8,   46,   -54,  -7,   -25,  -61,  -78,  34,   -33,  -102,
        -58,  24,   8,    -50,  124,  21,   -66,  -78,  91,   -20,  -104, -72,
        47,   -4,   -69,  -44,  -59,  86,   -12,  -1,   -7,   19,   -108, 22,
        2,    -50,  -85,  6,    -49,  26,   -30,  28,   -5,   -47,  39,   -41,
        -9,   -67,  80,   -17,  -27,  -127, -28,  -89,  -35,  29,   -15,  -12,
        6,    8,    -8,   -41,  35,   11,   2,    -55,  84,   -31,  73,   2,
        54,   -29,  25,   85,   12,   -29,  -15,  127,  -51,  81,   -65,  30,
        -81,  65,   -8,   -71,  -67,  3,    31,   -53,  -65,  -18,  45,   -20,
        -56,  6,    70,   90,   -40,  47,   99,   75,   29,   127,  8,    -34,
        111,  71,   -49,  -85,  37,   -31,  -21,  -88,  -14,  -72,  36,   -51,
        -66,  -36,  7,    -25,  -12,  -2,   -29,  22,   24,   -21,  -39,  42,
        25,   -41,  -66,  45,   48,   -93,  -61,  69,   4,    7,    -76,  43,
        -37,  34,   -71,  36,   -10,  -15,  -32,  -13,  -31,  -127, 17,   -42,
        -29,  -2,   -25,  5,    -34,  -31,  -8,   26,   19,   9,    -19,  21,
        -16,  -9,   16,   18,   8,    36,   44,   29,   -21,  52,   8,    127,
        5,    30,   -12,  95,   34,   64,   -57,  66,   86,   -25,  2,    61,
        39,   -32,  31,   47,   -46,  -56,  78,   15,   -110, -2,   59,   -52,
        -26,  -1,   34,   -99,  81,   -5,   9,    -90,  11,   -14,  -5,   -46,
        -34,  32,   27,   6,    -42,  -21,  0,    55,   -75,  -76,  38,   63,
        -83,  -17,  55,   65,   -59,  63,   86,   63,   11,   70,   56,   25,
        62,   67,   15,   -85,  101,  -12,  -45,  -127, 69,   -29,  -109, -112,
        33,   5,    -49,  3,    30,   -3,   43,   -38,  16,   -3,   5,    -50,
        9,    -14,  -37,  -88,  -48,  -10,  -41,  -85,  -44,  -36,  -48,  -35,
        -58,  6,    -15,  50,   -51,  19,   82,   127,  24,   50,   79,   74,
        62,   19,   35,   -25,  35,   -10,  -18,  -67,  0,    17,   -47,  -27,
        4,    -21,  -26,  7,    -75,  -33,  32,   42,   -127, 58,   67,   21,
        -71,  102,  60,   2,    7,    7,    25,   -9,   -3,   -34,  11,   35,
        -26,  -28,  -26,  36,   26,   -39,  -43,  -12,  25,   -31,  -32,  -27,
        -49,  -1,   22,   -13,  -36,  -41,  54,   9,    -62,  -60,  59,   30,
        -8,   -55,  33,   96,   18,   10,   -62,  66,   60,   80,   -127, 1,
        62,   45,   -106, -47,  40,   68,   24,   -62,  14,   19,   48,   -68,
        27,   -3,   38,   -36 };

const int32_t ds_cnn_s_layer_2_dw_conv2d_bias[64]
    = { 304, -244, -17,  14,   333,  -357, 315, -186, -103, -16, -24,
        510, 308,  36,   650,  209,  646,  -12, 9,    386,  936, 155,
        19,  4,    307,  238,  19,   -10,  56,  -152, -117, 255, 115,
        6,   39,   -135, 93,   0,    4,    -27, 427,  387,  449, 554,
        24,  -306, 157,  -113, -257, -302, 479, -22,  256,  666, 350,
        536, -59,  -65,  -120, 227,  -171, -5,  183,  -201 };

const int32_t ds_cnn_s_layer_2_dw_conv2d_output_mult[64]
    = { 1133392350, 2002254797, 1648375177, 1390883764, 2059540282, 1683567626,
        2094146190, 1307008428, 1462001836, 1484828049, 1456771847, 1236525775,
        1415322964, 1196249973, 1399681876, 1450222142, 1317566163, 1989937440,
        1440739732, 1562935733, 1330274547, 1856792677, 1674476243, 1904497996,
        1378273136, 1481211048, 1379446218, 1501251192, 1424414346, 1506627816,
        1662452157, 1560394056, 1416984829, 1605557698, 1203972760, 1110712772,
        1622567382, 1335553414, 1648375177, 2110178305, 1774676964, 2048591520,
        1848092322, 1216681144, 1075031540, 1935780172, 1420601831, 1444063463,
        1083438625, 1225185986, 1656195721, 1803026436, 1715045316, 1649157232,
        1979184192, 1595390991, 1385702653, 1477496289, 1976251488, 1328123897,
        1115551734, 2093950676, 1460291092, 1862658085 };

const int32_t ds_cnn_s_layer_2_dw_conv2d_output_shift[64]
    = { -7, -7, -7, -6, -8, -6, -7, -6, -5, -6, -7, -6, -7, -6, -7, -6,
        -7, -6, -7, -7, -7, -6, -6, -7, -6, -8, -6, -6, -6, -7, -7, -7,
        -6, -6, -6, -6, -7, -7, -6, -7, -7, -7, -6, -6, -6, -6, -7, -6,
        -6, -6, -7, -6, -6, -7, -7, -8, -6, -6, -7, -7, -5, -7, -6, -7 };

const int8_t ds_cnn_s_layer_2_dw_conv2d_weights[576]
    = { 4,    -127, 100,  127,  -50,  96,   -32,  -92,  29,   21,   59,   83,
        -41,  83,   -57,  32,   -1,   4,    -56,  -127, -87,  43,   -127, -57,
        -47,  -48,  31,   59,   -29,  36,   -59,  94,   -127, 29,   -16,  -50,
        86,   127,  108,  -127, -64,  10,   -1,   -54,  81,   53,   121,  -68,
        68,   67,   -83,  23,   -34,  -84,  -127, -102, 20,   53,   -24,  -126,
        -12,  127,  58,   46,   -45,  117,  80,   -14,  63,   27,   44,   -59,
        -20,  28,   -14,  37,   68,   29,   -22,  -23,  -51,  40,   127,  -104,
        -127, -37,  24,   -88,  27,   41,   16,   -43,  -16,  7,    22,   -8,
        -39,  -4,   -77,  -13,  79,   -62,  -7,   87,   76,   -117, -36,  -58,
        -48,  -4,   -108, 86,   127,  44,   33,   101,  -9,   -57,  -17,  -23,
        -10,  42,   -9,   127,  -25,  -19,  -37,  -126, 79,   -24,  -98,  -40,
        -127, -10,  -127, -28,  -24,  127,  -14,  59,   -33,  -127, -87,  -26,
        -30,  -100, 82,   117,  47,   -11,  63,   -11,  2,    -127, 99,   59,
        -35,  106,  16,   -38,  -19,  -63,  127,  -48,  18,   -66,  69,   -127,
        -55,  127,  -80,  -78,  -95,  -47,  -52,  -30,  -31,  -53,  -72,  -27,
        -83,  -49,  27,   -93,  19,   -11,  -13,  30,   35,   13,   -50,  33,
        -97,  -39,  -5,   -25,  -53,  61,   -47,  127,  -9,   25,   33,   -8,
        -52,  121,  -50,  11,   -48,  -30,  -59,  35,   0,    -127, 80,   102,
        -66,  -108, -65,  107,  -83,  68,   97,   35,   15,   -64,  -3,   127,
        83,   -125, 19,   74,   -127, -34,  36,   -99,  13,   72,   -15,  -30,
        -20,  127,  -24,  -32,  -84,  -80,  108,  -127, -127, 20,   -26,  -97,
        20,   -125, -29,  -16,  93,   97,   0,    107,  33,   67,   -30,  75,
        -26,  -58,  89,   -23,  98,   -94,  -108, -6,   -38,  -8,   29,   -43,
        -92,  -75,  -64,  -62,  127,  10,   -42,  117,  -63,  127,  -94,  56,
        -54,  78,   -37,  -84,  -1,   111,  -68,  19,   -82,  -32,  11,   22,
        -127, -101, 127,  -95,  -16,  33,   76,   -31,  39,   -116, -4,   107,
        -124, -51,  21,   -78,  -18,  29,   -41,  127,  -92,  -48,  127,  105,
        -70,  33,   25,   69,   34,   82,   -72,  -93,  -58,  -34,  -127, -127,
        -18,  48,   -99,  -81,  -22,  8,    4,    -51,  -98,  -52,  73,   -127,
        12,   -66,  2,    -53,  -6,   -8,   24,   -21,  -52,  -71,  -18,  -54,
        -96,  70,   -127, 96,   80,   91,   -93,  78,   -99,  -37,  -127, 127,
        -61,  42,   -94,  -8,   -87,  42,   61,   -112, 127,  80,   -95,  46,
        -127, 61,   6,    -82,  -81,  -127, -81,  -66,  0,    -65,  127,  -127,
        -96,  -39,  -70,  -37,  -127, -38,  48,   41,   -12,  103,  92,   25,
        -4,   -106, 9,    -91,  127,  -73,  -57,  -57,  116,  -27,  -27,  -21,
        -53,  -76,  -127, 86,   -76,  -74,  21,   -90,  75,   -79,  -11,  127,
        23,   -24,  -78,  -62,  127,  9,    86,   -41,  105,  -127, 127,  109,
        -21,  -22,  -12,  -68,  107,  -46,  -117, -90,  -42,  31,   17,   22,
        12,   8,    -82,  -113, 24,   13,   -47,  63,   -2,   -1,   -61,  -79,
        -54,  54,   -37,  127,  -46,  71,   41,   22,   44,   -74,  127,  -127,
        56,   -73,  -16,  89,   -127, 66,   68,   -22,  72,   115,  10,   25,
        -22,  127,  -54,  37,   56,   -65,  -45,  -51,  -77,  84,   -64,  -17,
        126,  53,   49,   39,   76,   -25,  127,  124,  -116, 96,   -71,  -105,
        -35,  -3,   99,   121,  127,  -41,  8,    11,   -127, 93,   -69,  -113,
        -28,  127,  52,   -71,  -62,  -42,  1,    -72,  -16,  -69,  -127, -124,
        109,  -111, 33,   -73,  26,   127,  89,   94,   -66,  26,   -14,  53,
        58,   -89,  -66,  -127, 91,   62,   -125, -76,  47,   67,   -36,  -25,
        26,   -127, -80,  14,   88,   104,  43,   112,  -4,   66,   -27,  -87 };

const int32_t ds_cnn_s_layer_3_conv2d_bias[64]
    = { 979,  386,  -91,  1209, 548,  -131, 1258, 1135, 1078, 374,  410,
        1150, 294,  268,  1619, 840,  -565, -461, 580,  923,  353,  775,
        976,  -145, -49,  1556, 386,  1100, 568,  70,   1562, -553, 610,
        633,  1745, 1320, 126,  1215, -111, 823,  1098, -584, 393,  698,
        912,  -756, 172,  727,  619,  1329, 584,  412,  1311, 135,  386,
        1461, -727, -193, -51,  303,  913,  826,  873,  127 };

const int32_t ds_cnn_s_layer_3_conv2d_output_mult[64]
    = { 1250403529, 1976119001, 1136227765, 1263740299, 2133883234, 1172659917,
        1570486014, 1636194004, 1984901752, 1895122518, 1973841991, 1752646778,
        1233163314, 1284883959, 1900977686, 1919193762, 1139480635, 1082230110,
        1783874337, 1104674918, 2135184382, 1784524912, 1141757645, 1360025274,
        2117618880, 1822258213, 1990106345, 1301798887, 1909435150, 1420528671,
        2111113138, 1134926616, 1646603190, 1082230110, 1154769128, 1795584672,
        1842426012, 1225031137, 1263740299, 1152817406, 1992708642, 1781597328,
        1130047310, 2048007445, 1803391562, 1223079414, 1341809198, 1118662262,
        1383120657, 1703203142, 1167780611, 1709058309, 1591954961, 2003768402,
        1461514843, 1635543430, 1867147829, 2077933856, 2038899407, 1414348216,
        1729226108, 1655060654, 1207465635, 1266017309 };

const int32_t ds_cnn_s_layer_3_conv2d_output_shift[64]
    = { -7, -7, -7, -7, -8, -7, -8, -8, -8, -8, -8, -8, -7, -7, -8, -8,
        -7, -7, -8, -7, -8, -8, -7, -7, -8, -8, -8, -8, -8, -7, -8, -7,
        -8, -7, -7, -8, -8, -7, -7, -7, -8, -7, -7, -8, -8, -7, -7, -7,
        -7, -8, -7, -8, -8, -8, -7, -8, -8, -8, -8, -7, -8, -7, -7, -7 };

const int8_t ds_cnn_s_layer_3_conv2d_weights[4096]
    = { 24,   -9,   -72,  -23,  -49,  -28,  20,   -64,  37,   -57,  -26,  -79,
        -24,  46,   30,   -22,  -56,  -33,  -36,  -21,  -66,  -33,  -23,  -26,
        -4,   22,   40,   58,   6,    -31,  -48,  -23,  -34,  13,   -14,  29,
        19,   -20,  10,   -7,   44,   -127, 3,    -38,  -13,  14,   -40,  50,
        48,   55,   22,   -26,  -30,  10,   -5,   -20,  10,   -17,  14,   -6,
        -91,  38,   -7,   21,   -93,  -38,  44,   -25,  72,   -67,  -62,  -38,
        -42,  75,   21,   -61,  7,    -27,  -24,  0,    -39,  -16,  -56,  -113,
        28,   59,   -19,  -30,  127,  -18,  -15,  39,   -36,  -37,  0,    17,
        2,    10,   43,   22,   -15,  54,   21,   23,   -14,  23,   -42,  -41,
        -23,  6,    46,   -21,  -36,  -18,  -9,   -18,  13,   -61,  -22,  -41,
        10,   47,   23,   75,   61,   20,   -24,  -9,   51,   39,   -61,  4,
        25,   -53,  19,   -55,  -89,  56,   -78,  -16,  81,   -60,  48,   43,
        7,    0,    5,    26,   60,   -64,  27,   29,   -55,  -34,  20,   -83,
        -4,   21,   36,   50,   -20,  8,    70,   39,   -63,  -8,   6,    -90,
        -15,  -15,  -38,  69,   9,    -47,  57,   -50,  -20,  53,   44,   6,
        8,    52,   8,    74,   13,   56,   51,   -30,  0,    -53,  -127, 97,
        30,   -26,  -90,  56,   -4,   -14,  -16,  -30,  -7,   -8,   37,   -7,
        4,    -127, -6,   0,    -23,  -1,   43,   -26,  -41,  -27,  40,   -95,
        -32,  -17,  -28,  -15,  39,   34,   9,    -41,  -21,  -23,  22,   -51,
        -59,  37,   -11,  18,   20,   -60,  41,   -49,  -111, -50,  -60,  -23,
        3,    -41,  -10,  -41,  7,    75,   -54,  3,    14,   9,    47,   52,
        -46,  -2,   5,    23,   -25,  70,   54,   47,   79,   -39,  -15,  -15,
        -4,   17,   64,   27,   65,   -52,  43,   -28,  10,   -62,  2,    76,
        -88,  43,   -9,   -71,  -68,  -80,  74,   -86,  -22,  62,   11,   -43,
        -64,  25,   72,   -47,  117,  40,   -59,  9,    5,    -78,  -21,  38,
        26,   82,   -33,  -127, -11,  -88,  -66,  -7,   -33,  46,   106,  49,
        -120, 2,    -29,  48,   -48,  13,   -119, -47,  10,   66,   18,   92,
        -21,  27,   54,   64,   -38,  -18,  33,   -13,  -30,  -31,  1,    -8,
        -35,  -78,  -56,  -41,  58,   -17,  5,    7,    17,   -74,  -26,  18,
        52,   82,   -127, -15,  -103, -17,  -78,  42,   -38,  -23,  32,   3,
        46,   -1,   3,    -11,  -59,  29,   -103, 15,   -3,   18,   -13,  -6,
        -22,  68,   87,   47,   104,  57,   55,   42,   30,   16,   -72,  -30,
        -10,  113,  -77,  45,   -14,  -72,  -38,  64,   -8,   120,  -60,  -77,
        76,   6,    -96,  -70,  46,   74,   -34,  -45,  41,   93,   -5,   -59,
        -122, -20,  -64,  -53,  -40,  -42,  -94,  49,   -92,  -85,  46,   -17,
        75,   0,    -103, 49,   -85,  36,   28,   -29,  -16,  32,   39,   -11,
        -127, -42,  41,   -60,  36,   -104, 23,   -57,  14,   61,   -55,  -96,
        65,   -12,  -35,  49,   -60,  52,   29,   -71,  2,    68,   51,   -89,
        -69,  -13,  37,   -79,  -43,  80,   -62,  0,    74,   12,   -46,  70,
        -23,  -51,  -14,  35,   21,   7,    89,   -48,  15,   -22,  40,   -74,
        -88,  18,   -21,  -16,  -48,  -26,  18,   -27,  -106, 98,   -17,  46,
        -28,  -23,  24,   -127, 6,    -30,  -44,  17,   -25,  32,   65,   -44,
        -43,  18,   2,    -99,  -95,  -33,  -97,  -125, -55,  -23,  -20,  94,
        -12,  -9,   12,   4,    -44,  17,   65,   -50,  -112, -29,  12,   67,
        35,   80,   -89,  68,   -56,  56,   -45,  -48,  -27,  25,   -51,  18,
        10,   -44,  -82,  -31,  -54,  -101, 0,    10,   -49,  31,   45,   -66,
        -29,  -127, 56,   -2,   -15,  -32,  47,   -13,  89,   -22,  10,   111,
        4,    14,   5,    -24,  5,    -72,  34,   -88,  -44,  27,   48,   -74,
        -59,  6,    -105, 70,   -30,  42,   -44,  -96,  -110, 55,   61,   -63,
        87,   34,   -98,  9,    -62,  102,  -115, -1,   -100, 48,   7,    22,
        -1,   4,    -42,  26,   -76,  39,   -117, 6,    127,  -10,  37,   42,
        -29,  -24,  -12,  41,   -12,  39,   -33,  -98,  -48,  21,   38,   125,
        33,   -29,  -4,   -33,  73,   49,   20,   26,   6,    -79,  -20,  29,
        1,    -23,  82,   38,   -15,  55,   -56,  69,   50,   51,   -49,  -10,
        30,   -55,  -121, -25,  -21,  73,   -17,  47,   63,   -24,  18,   -63,
        127,  58,   -34,  -16,  26,   22,   9,    -12,  62,   -27,  61,   46,
        -1,   -73,  -87,  49,   37,   -52,  -51,  44,   -52,  -25,  36,   -74,
        61,   -32,  14,   7,    -70,  -13,  -70,  -115, -20,  27,   67,   10,
        -34,  -85,  -99,  -120, 58,   -79,  58,   103,  -127, -41,  46,   30,
        -5,   -11,  -100, 79,   28,   -32,  -79,  -35,  -73,  16,   -44,  48,
        88,   -68,  -21,  -15,  43,   51,   -42,  -1,   -75,  -70,  -31,  -32,
        91,   -127, -107, 24,   -54,  25,   -70,  -32,  -40,  44,   19,   52,
        95,   103,  -57,  -56,  88,   -99,  -53,  47,   3,    109,  -58,  23,
        -109, 61,   -74,  -20,  -8,   -88,  69,   40,   -37,  81,   -69,  94,
        60,   -16,  -25,  -73,  2,    6,    32,   -50,  41,   -15,  -94,  -22,
        -34,  -16,  25,   12,   44,   -36,  -46,  92,   -47,  -52,  -56,  13,
        22,   11,   9,    61,   32,   61,   49,   43,   -27,  12,   5,    -35,
        25,   66,   50,   -2,   -59,  -8,   15,   35,   110,  -50,  -85,  28,
        -26,  35,   14,   -39,  -16,  -104, -23,  -17,  -40,  -7,   -16,  12,
        -127, 49,   -5,   -9,   -14,  -52,  -48,  -49,  59,   26,   -19,  -28,
        -4,   88,   -63,  53,   -19,  17,   10,   75,   -42,  -30,  57,   9,
        35,   12,   -1,   -24,  70,   -17,  29,   34,   26,   66,   34,   -43,
        -7,   -41,  -3,   51,   34,   0,    -114, 3,    66,   -127, -59,  -53,
        103,  23,   -51,  -6,   -104, -42,  49,   -56,  -77,  -39,  -6,   65,
        0,    53,   -39,  -12,  41,   -46,  -38,  11,   -104, 43,   34,   -4,
        -18,  26,   -9,   89,   5,    18,   -48,  7,    78,   -10,  23,   1,
        14,   -22,  46,   34,   -87,  -27,  -71,  -5,   -34,  -6,   -91,  -38,
        -75,  -82,  -28,  -48,  8,    37,   -67,  -82,  5,    -100, -105, 44,
        -30,  -6,   -27,  -17,  -69,  29,   33,   0,    -76,  38,   24,   -47,
        -127, -5,   42,   -11,  1,    -38,  -33,  -68,  99,   30,   32,   0,
        -49,  87,   -3,   74,   33,   18,   -2,   -10,  73,   25,   44,   28,
        12,   99,   -30,  39,   -55,  -18,  -43,  75,   -34,  -39,  91,   -7,
        -24,  -25,  -7,   -27,  -14,  -16,  -127, -55,  -52,  65,   42,   -123,
        -97,  -5,   36,   -39,  17,   -31,  -34,  -118, 6,    -64,  -35,  15,
        24,   -24,  23,   -48,  60,   20,   -32,  -101, 44,   41,   -53,  11,
        -28,  -10,  -124, -52,  -60,  99,   -33,  -11,  -11,  -5,   -37,  90,
        -5,   3,    -59,  -108, -30,  43,   -59,  -4,   45,   104,  -127, -84,
        102,  -35,  -14,  7,    -64,  -25,  39,   58,   82,   -10,  -12,  -82,
        -28,  -46,  30,   60,   37,   -1,   56,   16,   45,   16,   -5,   -70,
        3,    36,   -14,  39,   85,   69,   -27,  -82,  16,   5,    -46,  68,
        -2,   58,   42,   75,   112,  36,   17,   15,   26,   68,   -116, -17,
        55,   57,   31,   -58,  42,   36,   42,   3,    -59,  -41,  35,   -58,
        -70,  -54,  -17,  -1,   76,   -41,  -28,  -39,  127,  88,   13,   -7,
        -20,  4,    50,   -29,  -57,  39,   -11,  -26,  -98,  -31,  45,   1,
        40,   -7,   35,   58,   58,   83,   -43,  -42,  -20,  22,   59,   46,
        -16,  -46,  -30,  35,   13,   30,   37,   -25,  -31,  -66,  -25,  101,
        62,   38,   16,   -10,  -48,  -19,  41,   26,   46,   -24,  -67,  -41,
        67,   43,   -90,  -18,  -23,  63,   21,   -7,   97,   -58,  7,    -52,
        -44,  -20,  -20,  44,   32,   29,   -65,  24,   -37,  55,   -21,  -127,
        -40,  -98,  -28,  -21,  -7,   -34,  37,   9,    38,   -20,  -72,  -5,
        -17,  15,   41,   -52,  -63,  35,   3,    34,   -67,  -91,  -78,  21,
        50,   -2,   -39,  -13,  -24,  22,   -13,  -13,  -14,  28,   -80,  43,
        36,   -22,  54,   3,    7,    -66,  -59,  -32,  -48,  -111, 67,   -30,
        34,   -71,  -106, 53,   3,    -57,  12,   -26,  -42,  -100, 47,   72,
        -58,  -125, 24,   28,   22,   118,  19,   10,   -65,  88,   22,   32,
        -36,  43,   30,   -87,  72,   27,   56,   37,   -76,  -10,  48,   2,
        38,   -127, -7,   -86,  109,  101,  -8,   -102, -17,  35,   20,   28,
        -57,  -116, 21,   127,  -21,  7,    60,   11,   51,   -111, -125, -14,
        -13,  -50,  -26,  19,   -34,  -82,  16,   14,   91,   46,   -78,  6,
        54,   -3,   78,   -16,  9,    73,   49,   63,   -118, -68,  -23,  2,
        41,   5,    38,   42,   -71,  -59,  -83,  32,   -51,  44,   33,   113,
        -51,  -16,  -81,  36,   -36,  115,  24,   20,   76,   -83,  -86,  23,
        -26,  -75,  -108, -45,  -89,  65,   -89,  8,    -26,  -27,  -19,  -56,
        101,  75,   43,   -42,  -58,  95,   -2,   31,   -82,  -63,  -114, -45,
        58,   3,    23,   -2,   24,   -127, -24,  17,   20,   -61,  -53,  -97,
        63,   -110, 6,    -46,  70,   -95,  -23,  -9,   9,    70,   -65,  25,
        -20,  -60,  50,   106,  66,   51,   36,   -59,  -14,  -62,  44,   8,
        -16,  -20,  49,   -1,   27,   78,   25,   -28,  -16,  85,   109,  -29,
        -15,  -27,  -40,  24,   -82,  -62,  -21,  4,    44,   38,   0,    -98,
        -116, -42,  30,   -59,  38,   -8,   17,   70,   -8,   26,   -18,  -106,
        -2,   -88,  -127, -67,  85,   -83,  -11,  6,    -89,  -53,  6,    12,
        28,   -15,  -6,   -49,  86,   -30,  39,   87,   61,   -77,  -26,  29,
        16,   5,    -83,  -38,  39,   8,    -121, -37,  11,   17,   -12,  -21,
        15,   -44,  -44,  -52,  -50,  -13,  52,   -95,  -31,  50,   -51,  9,
        14,   46,   -29,  79,   -18,  -41,  -38,  -112, -45,  -44,  4,    85,
        13,   3,    34,   14,   -32,  127,  6,    -20,  -30,  0,    54,   -13,
        88,   -56,  11,   -15,  14,   10,   41,   102,  -86,  -47,  78,   35,
        19,   63,   33,   -9,   6,    -21,  33,   62,   -61,  37,   40,   33,
        -112, -23,  -51,  14,   -43,  45,   21,   51,   -53,  112,  78,   -51,
        -48,  -36,  -27,  119,  112,  101,  54,   46,   33,   51,   23,   88,
        -61,  -103, -60,  86,   -24,  -25,  20,   -58,  -47,  38,   -23,  -19,
        -4,   9,    127,  22,   9,    -53,  -22,  -51,  -7,   57,   -56,  -65,
        -38,  -76,  -13,  -27,  -97,  94,   -41,  -49,  27,   26,   79,   73,
        -111, -56,  102,  -48,  -24,  -33,  -74,  -29,  53,   51,   -69,  -20,
        -47,  -127, -105, 51,   54,   -30,  83,   15,   -3,   -11,  57,   9,
        -65,  -118, -89,  -31,  -21,  44,   -60,  0,    -70,  13,   -16,  64,
        -19,  -39,  -23,  37,   0,    15,   12,   -6,   -68,  -1,   -79,  -10,
        -23,  -9,   -25,  46,   -69,  -51,  -66,  -40,  84,   20,   -64,  52,
        -18,  -8,   -44,  -66,  -6,   1,    31,   -2,   -83,  -104, 15,   -40,
        -68,  2,    -30,  29,   -49,  7,    -68,  -46,  49,   -103, -81,  113,
        54,   -102, 28,   -51,  123,  -44,  30,   50,   100,  -99,  -82,  18,
        25,   44,   -22,  11,   -28,  -25,  -33,  23,   60,   -22,  -79,  13,
        85,   -25,  78,   80,   52,   -37,  -14,  -105, -60,  -7,   84,   -56,
        38,   -33,  20,   5,    -94,  127,  -4,   -12,  -5,   89,   34,   -111,
        -62,  -58,  7,    -110, 57,   -30,  110,  74,   46,   -70,  -92,  -64,
        94,   11,   -41,  16,   86,   -47,  46,   30,   84,   93,   -93,  -71,
        -126, 33,   -57,  -95,  -86,  -78,  -11,  38,   76,   -17,  84,   14,
        86,   13,   -37,  -12,  -10,  2,    -3,   -58,  21,   79,   -60,  9,
        104,  -63,  6,    68,   -121, -88,  45,   -41,  127,  -27,  -102, 83,
        59,   -29,  -52,  4,    -64,  7,    -16,  13,   -19,  -67,  63,   0,
        72,   -89,  -64,  94,   16,   -97,  -12,  38,   15,   26,   -33,  127,
        63,   41,   -34,  9,    -36,  47,   8,    50,   6,    -67,  -22,  19,
        35,   50,   -5,   15,   50,   28,   -49,  -26,  29,   47,   -75,  77,
        43,   -82,  31,   -11,  -62,  10,   3,    -10,  -8,   -10,  -53,  8,
        -56,  -84,  34,   -20,  -40,  -95,  -84,  -48,  44,   10,   1,    -28,
        -54,  25,   93,   -67,  -19,  19,   -41,  69,   51,   64,   -47,  -40,
        -5,   -110, -4,   -52,  -93,  3,    22,   -15,  -28,  100,  4,    -65,
        -16,  -64,  79,   63,   42,   102,  -5,   80,   99,   -73,  -24,  6,
        -34,  14,   -127, -21,  2,    53,   -8,   -88,  -28,  -10,  32,   9,
        24,   36,   -63,  90,   97,   59,   84,   -49,  -90,  20,   -73,  11,
        61,   20,   19,   75,   43,   -12,  6,    -67,  -52,  25,   -3,   -108,
        -11,  56,   -55,  -24,  4,    35,   -87,  -11,  -9,   -11,  86,   39,
        26,   -105, 5,    7,    16,   33,   3,    -40,  23,   56,   -42,  -5,
        -16,  -51,  49,   12,   -73,  -95,  -28,  -73,  -44,  28,   11,   22,
        -4,   -39,  -40,  -26,  46,   -50,  -39,  -127, 34,   -95,  -85,  -41,
        61,   24,   -34,  4,    72,   -12,  35,   -28,  -91,  10,   69,   -127,
        -2,   4,    5,    -38,  11,   -85,  21,   115,  23,   -22,  61,   -78,
        95,   104,  79,   -47,  -52,  -28,  -51,  -1,   8,    38,   76,   28,
        61,   90,   38,   45,   -31,  15,   0,    -2,   -125, 59,   23,   -66,
        70,   -8,   100,  -4,   23,   -22,  -31,  -88,  93,   -21,  104,  24,
        17,   10,   8,    -70,  24,   -79,  60,   -85,  42,   -89,  4,    -6,
        10,   -59,  24,   -43,  26,   -99,  -34,  23,   82,   25,   -127, 55,
        -9,   30,   67,   -1,   122,  -94,  -17,  -63,  41,   59,   -17,  -18,
        49,   -1,   -16,  -58,  -89,  -8,   30,   7,    -123, 58,   -26,  -59,
        59,   -71,  -35,  103,  26,   -104, 20,   55,   -97,  37,   85,   43,
        6,    -15,  20,   72,   62,   -57,  40,   -26,  -93,  46,   -10,  -91,
        -57,  74,   -11,  -45,  -51,  44,   23,   3,    -24,  17,   -47,  10,
        -127, -38,  -65,  -26,  -8,   29,   10,   -23,  5,    -10,  -35,  -45,
        -25,  -41,  39,   37,   32,   -56,  -46,  20,   71,   -55,  -7,   -2,
        49,   -12,  37,   22,   -5,   23,   52,   -3,   -11,  34,   14,   -6,
        -28,  24,   -43,  -5,   2,    -59,  18,   34,   1,    39,   -54,  -22,
        -32,  -16,  -6,   -61,  43,   -63,  -51,  -15,  -71,  19,   -53,  -25,
        46,   -103, 45,   9,    -83,  81,   -127, -87,  80,   -98,  31,   61,
        -43,  58,   -36,  -67,  -28,  -63,  -7,   27,   -35,  -58,  0,    26,
        10,   -38,  -52,  55,   -25,  -27,  -28,  78,   -53,  110,  2,    -35,
        -15,  -32,  27,   37,   9,    -64,  -53,  -22,  -6,   -19,  -6,   -21,
        -19,  -35,  -45,  -59,  -9,   -19,  -46,  7,    20,   -35,  -10,  -9,
        45,   -58,  22,   -93,  7,    0,    60,   91,   -37,  -102, -39,  32,
        -94,  -45,  -109, -15,  40,   -8,   88,   97,   -42,  -57,  45,   48,
        -31,  47,   -92,  9,    18,   52,   -52,  105,  -1,   -72,  -26,  -118,
        -88,  -19,  3,    -90,  -127, -13,  -20,  68,   -87,  -55,  -28,  -71,
        28,   -75,  38,   -70,  42,   -7,   11,   11,   -35,  3,    33,   85,
        -17,  -69,  26,   -86,  79,   -43,  36,   22,   -51,  -4,   -49,  88,
        51,   -48,  -41,  -85,  49,   12,   -15,  51,   -1,   17,   34,   -66,
        -78,  -41,  15,   -18,  -114, 27,   29,   27,   36,   -127, -24,  -4,
        1,    -31,  -36,  3,    -12,  102,  -38,  15,   21,   8,    -72,  -6,
        -73,  -69,  -15,  -45,  7,    58,   77,   59,   91,   15,   -61,  -71,
        66,   55,   -74,  -21,  -68,  39,   -53,  20,   25,   -13,  -64,  42,
        8,    38,   -4,   -41,  -62,  -15,  -58,  3,    91,   -18,  -94,  -9,
        -91,  54,   -25,  18,   47,   59,   -47,  16,   11,   81,   -12,  -44,
        25,   -81,  27,   19,   74,   23,   -127, 7,    23,   32,   4,    24,
        3,    1,    -108, -48,  -52,  -40,  9,    79,   -68,  -57,  -72,  39,
        49,   -27,  -70,  -79,  -42,  -54,  -82,  -27,  29,   -26,  20,   28,
        45,   -10,  21,   -6,   22,   -47,  -35,  -76,  24,   -4,   -6,   -37,
        -35,  -13,  3,    -89,  -4,   -35,  33,   -9,   -25,  -47,  -6,   26,
        46,   -7,   -66,  -12,  -26,  -25,  20,   43,   -31,  -65,  42,   40,
        -25,  127,  -45,  4,    -1,   -29,  49,   27,   -46,  86,   21,   1,
        38,   4,    -61,  12,   58,   12,   -85,  10,   29,   42,   77,   59,
        -1,   -12,  72,   9,    -46,  39,   22,   19,   6,    0,    -33,  -73,
        -60,  2,    15,   4,    45,   -83,  -9,   -2,   -20,  -49,  89,   -127,
        7,    25,   67,   -44,  -56,  72,   31,   -49,  70,   -18,  79,   89,
        54,   16,   20,   72,   -82,  -73,  -71,  6,    60,   -6,   -2,   36,
        -59,  -40,  -39,  6,    -91,  -121, -83,  -57,  -52,  38,   -105, 124,
        2,    -71,  23,   -44,  5,    -20,  -39,  -71,  57,   -2,   13,   -63,
        -48,  15,   -127, -13,  -61,  -95,  41,   -9,   -11,  -96,  -71,  38,
        -42,  5,    20,   28,   12,   -21,  -63,  -41,  -83,  -53,  -32,  -70,
        59,   -55,  -9,   -29,  55,   11,   -35,  9,    -62,  -2,   62,   -61,
        -8,   -27,  19,   8,    5,    -5,   61,   34,   -10,  -23,  -32,  55,
        17,   88,   -15,  16,   -19,  -59,  -12,  6,    71,   -11,  -52,  3,
        40,   14,   -28,  -35,  35,   -59,  -34,  -10,  -41,  27,   -54,  24,
        -10,  -34,  28,   -25,  7,    -4,   36,   0,    127,  -61,  53,   0,
        -39,  19,   -1,   -25,  34,   -74,  10,   19,   6,    35,   -16,  6,
        24,   8,    4,    8,    19,   -37,  20,   53,   -9,   41,   26,   17,
        -19,  -19,  15,   81,   -8,   13,   17,   -23,  -1,   63,   -8,   15,
        29,   74,   17,   18,   -57,  59,   -43,  -69,  -63,  -25,  -98,  -61,
        106,  109,  38,   45,   -15,  37,   35,   -106, -20,  -72,  -54,  -65,
        70,   23,   -19,  47,   42,   -48,  -74,  -29,  39,   45,   -97,  -51,
        39,   -74,  57,   38,   -36,  -53,  -17,  -50,  0,    0,    21,   6,
        9,    -91,  28,   18,   -30,  -50,  44,   20,   -9,   60,   -6,   -34,
        -21,  18,   80,   -127, -10,  -56,  -8,   -15,  8,    -43,  19,   5,
        -29,  -79,  -30,  51,   35,   -59,  -15,  -44,  -45,  -53,  -12,  -24,
        14,   -51,  11,   -67,  42,   -23,  8,    88,   -19,  -3,   -38,  17,
        -127, -11,  -17,  -57,  -29,  28,   -39,  0,    -19,  43,   54,   41,
        -56,  16,   -55,  -15,  7,    85,   -52,  38,   97,   -67,  62,   -78,
        106,  -97,  -62,  -19,  -32,  -37,  64,   -70,  -52,  -53,  -6,   -4,
        -90,  -90,  58,   -22,  -13,  43,   -35,  -46,  75,   -42,  47,   41,
        49,   116,  -36,  -42,  -30,  23,   -19,  -10,  97,   -127, -8,   -11,
        -24,  -87,  47,   -48,  -67,  -4,   98,   -5,   37,   -41,  -63,  -33,
        43,   79,   -12,  -4,   83,   -51,  -25,  -58,  10,   -27,  -18,  -74,
        -115, -13,  -8,   -33,  21,   44,   -13,  -40,  67,   8,    -120, -35,
        114,  2,    -26,  6,    -127, 23,   12,   2,    35,   -15,  -31,  -36,
        101,  75,   88,   31,   0,    14,   31,   -29,  -34,  48,   105,  -16,
        18,   54,   69,   -55,  37,   -57,  -58,  -26,  8,    -39,  53,   43,
        -56,  17,   -39,  -8,   -76,  -92,  97,   -35,  85,   73,   -56,  -74,
        -5,   -20,  103,  5,    51,   -75,  55,   -7,   10,   -27,  -43,  40,
        -38,  62,   -15,  70,   5,    -40,  33,   -127, 45,   74,   -55,  54,
        116,  1,    106,  -59,  -93,  88,   -106, -100, 65,   46,   -30,  -53,
        -76,  53,   -44,  29,   -12,  57,   10,   -55,  -59,  14,   -30,  -63,
        -17,  -37,  66,   20,   -95,  13,   -52,  -1,   79,   54,   29,   110,
        -61,  35,   11,   -94,  31,   20,   -25,  82,   97,   -40,  18,   -9,
        9,    -19,  -63,  -29,  55,   8,    -65,  93,   19,   -2,   -126, 40,
        15,   -41,  16,   -7,   32,   11,   -48,  -30,  -112, -84,  -67,  -30,
        47,   -14,  -7,   -34,  -64,  -33,  -9,   36,   -31,  -39,  63,   17,
        33,   49,   -66,  27,   41,   57,   -20,  -72,  -12,  73,   -22,  34,
        -56,  -26,  -36,  -24,  -4,   -76,  8,    34,   12,   67,   6,    -127,
        -28,  -45,  74,   -4,   -73,  107,  -112, 72,   38,   113,  -3,   -61,
        -19,  21,   15,   -2,   8,    -16,  14,   83,   -73,  -5,   -28,  -14,
        -36,  -13,  56,   5,    10,   80,   -19,  3,    -22,  14,   -48,  -9,
        -124, 18,   -25,  -35,  28,   69,   -48,  15,   11,   -37,  -38,  1,
        -17,  -63,  -64,  -79,  -40,  -94,  -5,   -17,  53,   77,   26,   -52,
        48,   -3,   -39,  127,  -68,  49,   -10,  -95,  -36,  14,   69,   12,
        -1,   -51,  22,   104,  -9,   25,   8,    -41,  -16,  15,   39,   -60,
        77,   85,   -100, 44,   -104, -8,   23,   -9,   -97,  -55,  -80,  -10,
        -60,  61,   -68,  55,   -10,  23,   -44,  -56,  53,   -127, 24,   -111,
        -124, -25,  -8,   -15,  -59,  25,   -4,   67,   -53,  -111, -23,  55,
        42,   20,   35,   16,   -30,  -82,  -17,  25,   39,   25,   58,   50,
        36,   -14,  -37,  -17,  30,   -57,  -74,  40,   -46,  61,   10,   -7,
        44,   -107, -18,  33,   17,   -10,  35,   15,   -41,  4,    -91,  2,
        -53,  31,   4,    17,   37,   -39,  25,   -57,  9,    -84,  21,   0,
        -30,  -38,  -64,  -38,  81,   -45,  -24,  35,   -25,  -90,  24,   -22,
        7,    46,   26,   -20,  47,   -22,  -48,  10,   -25,  64,   -53,  29,
        34,   -94,  -36,  16,   -93,  40,   -127, 24,   -27,  19,   7,    -17,
        -18,  -44,  -66,  -63,  -65,  41,   70,   -81,  84,   30,   -127, 45,
        -5,   11,   -52,  10,   19,   -72,  -36,  -94,  11,   87,   -124, -106,
        69,   -18,  -2,   -35,  -65,  6,    51,   -44,  53,   -54,  -4,   48,
        -4,   36,   -65,  67,   -22,  61,   112,  74,   61,   -78,  -34,  -98,
        -77,  33,   34,   55,   16,   -48,  -38,  6,    24,   -2,   5,    -109,
        13,   55,   11,   -7,   6,    -26,  -57,  40,   -34,  -56,  -33,  -33,
        9,    -54,  -61,  31,   95,   -30,  -113, 11,   42,   19,   -122, 97,
        -27,  30,   -79,  -46,  26,   100,  -44,  91,   22,   -58,  -64,  -90,
        32,   65,   17,   1,    43,   27,   53,   -30,  24,   -44,  -5,   -20,
        -25,  41,   -127, 50,   40,   -105, -89,  27,   -88,  -108, -41,  39,
        -114, -73,  -51,  -22,  5,    -76,  17,   14,   44,   -14,  -4,   15,
        93,   -68,  85,   26,   -44,  -108, -106, 28,   58,   -17,  27,   -48,
        -51,  63,   -80,  -62,  66,   -13,  44,   -43,  3,    -43,  10,   25,
        32,   28,   -52,  88,   -77,  9,    -71,  3,    -127, 46,   37,   0,
        7,    -3,   12,   -66,  -14,  7,    -67,  3,    29,   -59,  67,   41,
        2,    47,   111,  3,    -36,  -125, -45,  12,   65,   5,    -55,  -72,
        27,   5,    30,   69,   -63,  -49,  -11,  55,   -127, -48,  41,   17,
        35,   20,   58,   42,   36,   -27,  34,   -10,  25,   -3,   72,   -22,
        -59,  -27,  78,   -77,  49,   -4,   -76,  -64,  -9,   -82,  -30,  -36,
        18,   -6,   28,   -32,  58,   -12,  -73,  -5,   2,    36,   -5,   -65,
        17,   42,   -35,  40,   20,   39,   -46,  -90,  38,   -30,  44,   20,
        19,   13,   -64,  -17,  -3,   21,   85,   -41,  -89,  -104, -117, 69,
        -76,  -23,  9,    -57,  31,   -57,  27,   -16,  60,   -106, -20,  55,
        64,   11,   -35,  43,   -74,  47,   57,   -2,   25,   -71,  -127, 74,
        -30,  10,   -87,  -45,  34,   6,    -52,  19,   -42,  11,   2,    50,
        10,   51,   48,   -12,  -12,  39,   -46,  -64,  -21,  18,   -52,  -41,
        -38,  5,    -35,  -11,  19,   -13,  -25,  -48,  95,   -12,  18,   -33,
        -28,  -113, 67,   71,   67,   27,   -47,  -84,  -78,  85,   64,   19,
        98,   26,   -61,  -30,  -12,  -11,  -106, -90,  -40,  55,   6,    70,
        -112, 43,   -56,  19,   -92,  -3,   65,   91,   -48,  49,   -127, -62,
        53,   -52,  86,   94,   -97,  -45,  52,   -32,  -99,  87,   22,   13,
        67,   110,  88,   81,   91,   1,    55,   -36,  -21,  -2,   -10,  -9,
        80,   60,   19,   38,   60,   60,   -67,  98,   -85,  22,   -45,  -26,
        -16,  8,    -42,  104,  -96,  -98,  37,   36,   21,   -47,  73,   3,
        -6,   -29,  115,  67,   -31,  48,   5,    -30,  123,  -24,  -13,  71,
        -14,  -88,  -9,   22,   -51,  -21,  -127, 14,   27,   73,   69,   40,
        -41,  -36,  43,   66,   126,  -38,  -56,  -59,  37,   -99,  -96,  -65,
        -55,  88,   -6,   -95,  17,   -41,  -26,  34,   22,   -78,  64,   26,
        -91,  27,   -127, 126,  -1,   -42,  -72,  34,   44,   -35,  -8,   14,
        -39,  -34,  68,   -77,  10,   57,   14,   -33,  -54,  -16,  11,   89,
        -9,   4,    68,   -91,  -62,  -14,  8,    -92,  -47,  46,   22,   -62,
        26,   -64,  -17,  52,   -88,  -31,  44,   -16,  87,   58,   58,   87,
        8,    -86,  17,   -22,  25,   76,   -46,  44,   -53,  -60,  -4,   -4,
        -40,  127,  -50,  -14,  45,   -23,  63,   -8,   -30,  81,   -125, 7,
        53,   -10,  -2,   -11,  -78,  45,   12,   -30,  47,   20,   -87,  51,
        16,   21,   45,   18,   -63,  6,    -53,  -31,  -42,  -27,  -4,   -22,
        31,   46,   40,   -43,  -5,   22,   35,   -35,  -62,  -19,  43,   -16,
        -25,  -32,  -4,   23,   -5,   50,   -46,  22,   47,   -17,  11,   6,
        2,    2,    -87,  34,   35,   27,   -63,  -127, -102, -5,   35,   -46,
        23,   54,   110,  -68,  42,   -14,  41,   -58,  1,    -23,  -30,  37,
        69,   -30,  -42,  38,   39,   -28,  -1,   4,    -100, -77,  -95,  -92,
        26,   -58,  50,   -25,  -7,   -34,  79,   14,   -40,  -15,  3,    -72,
        -4,   -42,  38,   82,   41,   -21,  -1,   -65,  74,   -41,  -51,  -44,
        -94,  -58,  -44,  20,   -62,  -55,  13,   34,   54,   36,   27,   -1,
        -7,   -33,  -27,  -54,  68,   -42,  -127, 6,    6,    -36,  -95,  -20,
        -43,  -16,  -30,  -68,  43,   -8,   -75,  11,   8,    4,    14,   -22,
        -54,  -32,  19,   16,   -73,  -24,  62,   -10,  -28,  -1,   -41,  12,
        38,   29,   21,   57,   30,   -81,  22,   20,   75,   -56,  -34,  -41,
        13,   -26,  -12,  -37,  44,   56,   51,   51,   -6,   -118, 82,   97,
        -45,  -58,  -102, 31,   -46,  -51,  45,   2,    -31,  -33,  39,   -30,
        2,    -10,  -21,  58,   -13,  18,   -66,  -16,  38,   -52,  0,    -64,
        -23,  -61,  38,   -14,  40,   -40,  8,    107,  -56,  -54,  -63,  54,
        -29,  83,   -49,  57,   5,    7,    23,   38,   -84,  -9,   56,   72,
        16,   -127, -51,  42,   -14,  -21,  -7,   -13,  -10,  25,   -47,  -65,
        -90,  -72,  17,   -83,  8,    7,    81,   -34,  27,   -40,  66,   -7,
        26,   26,   87,   -45,  -4,   15,   4,    -63,  48,   -2,   2,    19,
        0,    2,    -53,  47,   85,   30,   -28,  -7,   -24,  1,    -24,  63,
        -14,  -77,  17,   -12,  -87,  127,  -42,  -67,  65,   -23,  44,   11,
        -10,  78,   -43,  12,   -75,  20,   -57,  -66,  16,   5,    -74,  -7,
        -30,  -25,  -55,  95 };

const int32_t ds_cnn_s_layer_4_dw_conv2d_bias[64]
    = { -345, 491,  -92, -85,  -357, -131, -265, -57,  1232, -389, -143,
        -213, -57,  134, 516,  -369, -602, -373, -345, 504,  -155, -408,
        246,  -91,  802, -183, 106,  1042, -619, 716,  486,  -881, 327,
        -189, -234, 798, -371, 151,  641,  -664, -185, -79,  636,  -67,
        767,  -628, -44, -474, 821,  -226, -145, -121, -22,  -285, -1228,
        -719, -247, 77,  -231, -212, 561,  251,  -355, -795 };

const int32_t ds_cnn_s_layer_4_dw_conv2d_output_mult[64]
    = { 1516841758, 1922406348, 1195560132, 1346011512, 1410544587, 1597602449,
        1646411091, 1961780330, 2136258645, 1234556727, 1807932472, 1412934701,
        1458221070, 1342740830, 1411425156, 1409286633, 1337205829, 1121718192,
        1220341839, 1123856715, 1524137895, 1427526976, 1507029712, 1198956609,
        1778999514, 1463252889, 2134497508, 1164237060, 1465517207, 1678111549,
        1255564570, 2087198412, 1571562787, 1164740242, 1221348203, 1101968303,
        1939011350, 1468913685, 1955616352, 1782773378, 1245438035, 1105238985,
        1236317864, 1257325707, 1555838353, 1807680881, 1862527705, 1158702060,
        2012727495, 1993858174, 1556215740, 1672324957, 1846803272, 1747550647,
        1407148110, 1231537636, 1142851831, 1479103118, 2113992847, 1946810669,
        1561876536, 1755601557, 1474322890, 1437339022 };

const int32_t ds_cnn_s_layer_4_dw_conv2d_output_shift[64]
    = { -7, -7, -6, -7, -6, -7, -6, -6, -7, -6, -7, -6, -6, -6, -6, -6,
        -7, -6, -6, -6, -7, -6, -6, -6, -7, -6, -7, -6, -6, -7, -6, -8,
        -6, -6, -5, -6, -6, -6, -7, -7, -5, -6, -6, -6, -6, -7, -7, -6,
        -7, -6, -6, -6, -6, -6, -7, -6, -6, -7, -6, -7, -6, -7, -6, -7 };

const int8_t ds_cnn_s_layer_4_dw_conv2d_weights[576]
    = { 71,   -55,  11,   122,  -53,  103,  62,   48,   -127, 0,    118,  8,
        11,   68,   -23,  127,  110,  48,   103,  -13,  -100, -100, 105,  36,
        10,   -86,  127,  -54,  -64,  -56,  127,  127,  -126, 85,   58,   8,
        -20,  117,  -84,  -122, 29,   -13,  -86,  -37,  -63,  29,   -127, 104,
        -19,  36,   22,   30,   127,  58,   106,  44,   2,    -71,  127,  12,
        -108, 127,  56,   100,  116,  127,  -127, -112, -26,  62,   22,   22,
        -65,  -12,  117,  -15,  -55,  9,    6,    -14,  -58,  -80,  -14,  -61,
        127,  63,   -34,  -127, -64,  -35,  -53,  -122, -82,  127,  -86,  117,
        -121, -42,  4,    -53,  23,   -4,   29,   61,   42,   19,   -45,  127,
        -38,  38,   -96,  -75,  -99,  -10,  -26,  58,   60,   -127, 23,   74,
        66,   -19,  48,   -4,   -69,  -68,  -13,  38,   55,   -32,  125,  79,
        15,   31,   92,   -127, -64,  127,  -18,  90,   -1,   47,   -69,  11,
        -99,  -9,   -59,  -63,  103,  10,   -86,  61,   -40,  55,   -54,  32,
        13,   -111, -15,  58,   127,  9,    -78,  -18,  68,   -58,  65,   -37,
        62,   94,   67,   -79,  -97,  1,    37,   80,   -17,  -6,   -89,  -73,
        19,   105,  73,   5,    -127, 70,   -60,  41,   -89,  -33,  127,  30,
        123,  -53,  -100, 105,  48,   83,   46,   36,   -93,  11,   -127, -58,
        55,   -11,  114,  21,   3,    -39,  127,  -9,   -34,  26,   64,   49,
        -62,  -73,  110,  -83,  84,   -61,  27,   91,   59,   86,   -8,   -71,
        127,  120,  -55,  73,   71,   -40,  -51,  -37,  1,    54,   46,   127,
        13,   52,   30,   -101, 18,   39,   95,   94,   79,   -123, -8,   -46,
        6,    89,   66,   127,  80,   -13,  61,   -52,  -13,  -127, 59,   24,
        -33,  19,   126,  45,   60,   -59,  -119, 37,   127,  75,   9,    -45,
        87,   -15,  -1,   10,   -73,  -5,   -43,  -22,  40,   -47,  -36,  66,
        71,   -23,  4,    5,    21,   -38,  -33,  127,  -27,  -15,  -34,  69,
        -78,  35,   60,   87,   -53,  86,   12,   101,  64,   96,   21,   -25,
        77,   -30,  4,    127,  -44,  -82,  81,   20,   -82,  13,   68,   16,
        53,   -26,  46,   -28,  -81,  92,   -66,  -43,  21,   17,   -127, -68,
        30,   62,   -5,   43,   -64,  96,   -22,  -40,  -47,  127,  38,   64,
        97,   -28,  -30,  -21,  -55,  127,  127,  -33,  12,   1,    1,    93,
        12,   127,  -127, -10,  32,   13,   -76,  27,   -27,  -96,  4,    83,
        -96,  4,    14,   -34,  -36,  125,  54,   45,   -25,  -57,  -46,  -21,
        122,  -79,  26,   127,  127,  -10,  -127, 35,   -59,  0,    -63,  17,
        90,   -127, 29,   -23,  -26,  50,   107,  -18,  46,   66,   -127, 41,
        -71,  -69,  13,   -127, 127,  -55,  -7,   14,   32,   -30,  -47,  -127,
        62,   -127, -127, 82,   127,  -38,  56,   18,   -44,  127,  68,   -29,
        10,   -47,  127,  40,   -52,  3,    105,  97,   27,   8,    1,    6,
        127,  -15,  42,   63,   23,   -44,  85,   -94,  43,   108,  -43,  61,
        -29,  -8,   -10,  127,  -23,  -65,  -79,  63,   125,  106,  85,   -127,
        -22,  -9,   -16,  72,   16,   81,   -84,  -115, -1,   -52,  -64,  52,
        -68,  -110, -6,   -17,  37,   -100, -95,  36,   -62,  -32,  -33,  78,
        -56,  8,    30,   15,   -71,  127,  44,   -127, 31,   113,  127,  27,
        56,   -11,  31,   37,   -86,  -87,  -65,  99,   -127, -55,  -59,  48,
        -2,   -59,  5,    -22,  -111, 8,    -89,  -57,  -127, 92,   -6,   77,
        15,   127,  -68,  111,  46,   127,  -23,  16,   -127, 78,   7,    7,
        124,  -80,  -104, 84,   -81,  84,   10,   -104, -52,  14,   28,   100,
        -32,  4,    -70,  -89,  -127, 37,   63,   -16,  -127, -22,  -15,  29,
        -114, -3,   13,   127,  119,  127,  -77,  -123, 21,   -15,  -2,   18 };

const int32_t ds_cnn_s_layer_5_conv2d_bias[64]
    = { 1165,  771,  283,  -50,   1302, -506,  1919,  919, 31,    1203, 144,
        1621,  -170, -444, -176,  -29,  805,   550,   -42, -103,  1038, -220,
        -1707, 1039, 125,  -944,  -465, -1175, 1742,  877, -1351, -65,  1734,
        -549,  28,   1396, -173,  1169, 225,   -315,  -77, 859,   1749, 1320,
        152,   349,  -239, -1076, 325,  -537,  -147,  77,  862,   859,  2477,
        265,   -240, 1288, -199,  484,  727,   -1018, 95,  -617 };

const int32_t ds_cnn_s_layer_5_conv2d_output_mult[64]
    = { 1743520774, 1148672510, 2069848192, 1231652910, 1135930201, 1116972132,
        1905130543, 1111999524, 1913211031, 1748493382, 1470027319, 2036283086,
        1502349273, 1962937114, 1969774450, 1550832204, 1473756775, 1244084431,
        1176332643, 1906995271, 2043120422, 1262420924, 1079677570, 1846080819,
        2120195850, 1230409758, 1097703275, 1079366782, 1803192073, 1954856625,
        1703739908, 1076569690, 1101121943, 2105899601, 1826811962, 1887104838,
        1082163874, 1325200103, 1361562301, 1522239706, 1903887391, 1601801438,
        2065497159, 1516645522, 1895185326, 2053687215, 2001474828, 1877781197,
        1112931888, 1123498681, 1766208299, 2146302044, 1098014063, 1215491934,
        1915075759, 1099568003, 1294121302, 2111493786, 1775842728, 1079677570,
        2122060578, 1690376023, 1926264128, 1184723920 };

const int32_t ds_cnn_s_layer_5_conv2d_output_shift[64]
    = { -7, -6, -7, -6, -6, -6, -7, -6, -7, -7, -7, -7, -7, -7, -7, -7,
        -7, -6, -6, -7, -7, -6, -6, -7, -7, -6, -6, -6, -7, -7, -7, -6,
        -6, -7, -7, -7, -6, -6, -6, -6, -7, -7, -7, -7, -7, -7, -7, -7,
        -6, -6, -6, -7, -6, -6, -7, -6, -6, -7, -7, -6, -7, -6, -7, -6 };

const int8_t ds_cnn_s_layer_5_conv2d_weights[4096]
    = { 100,  72,   -33,  -27,  35,   -18,  -72,  -123, 89,   -32,  -49,  -44,
        -33,  -95,  126,  105,  54,   -99,  -22,  -28,  -85,  -10,  -10,  -92,
        -95,  24,   -42,  -72,  74,   -53,  70,   -106, 25,   -23,  73,   -19,
        45,   103,  -118, 79,   -79,  51,   -37,  17,   19,   33,   -36,  127,
        81,   84,   -91,  -31,  -15,  -43,  -9,   -78,  15,   -101, 53,   -32,
        -90,  15,   -67,  -58,  2,    17,   -7,   -49,  16,   -46,  -38,  -63,
        59,   -4,   29,   -61,  -40,  38,   1,    -16,  63,   23,   26,   -23,
        4,    43,   0,    4,    -12,  24,   20,   -5,   -21,  -25,  43,   -30,
        -15,  -79,  -48,  82,   63,   -49,  -12,  40,   43,   -23,  22,   -2,
        -1,   68,   -58,  1,    -55,  -127, -55,  14,   -31,  -4,   11,   5,
        -37,  14,   -21,  -71,  97,   -11,  50,   -60,  -119, -56,  -120, 68,
        28,   51,   -5,   -5,   -10,  -64,  -62,  -30,  -24,  -83,  -44,  -28,
        45,   47,   30,   -26,  -72,  -20,  -34,  -26,  -56,  40,   29,   113,
        63,   -13,  43,   -30,  81,   21,   0,    39,   -11,  -52,  -127, 79,
        47,   19,   62,   11,   22,   -77,  -26,  58,   17,   52,   -1,   88,
        -34,  99,   -35,  -92,  -26,  -76,  12,   19,   17,   27,   -30,  -77,
        73,   41,   76,   3,    -5,   -15,  -37,  -38,  64,   -38,  -69,  19,
        -5,   66,   -57,  21,   19,   34,   55,   -110, -78,  -77,  -17,  53,
        25,   54,   -7,   -16,  -63,  -42,  4,    -127, -23,  7,    -34,  0,
        -6,   -26,  42,   -48,  39,   109,  89,   -35,  -44,  17,   -69,  -5,
        -17,  -81,  75,   -3,   73,   42,   -16,  -31,  11,   42,   -11,  87,
        96,   21,   -14,  -68,  -47,  2,    -101, -4,   14,   72,   -12,  -85,
        -13,  -72,  3,    -18,  -65,  -1,   -103, -14,  -45,  -52,  -55,  -25,
        -89,  44,   -57,  105,  -127, 8,    87,   -54,  51,   -125, -42,  -61,
        78,   -1,   -61,  -22,  -51,  4,    34,   -42,  8,    34,   94,   -68,
        70,   -86,  62,   43,   11,   -39,  62,   24,   33,   -37,  63,   4,
        -39,  61,   -42,  -2,   79,   0,    -15,  2,    -96,  31,   10,   51,
        -33,  6,    -11,  -88,  64,   -48,  0,    -8,   -5,   47,   -86,  75,
        0,    3,    23,   -30,  -37,  -93,  -80,  -5,   127,  -70,  87,   -52,
        58,   18,   22,   -27,  -95,  -100, 27,   62,   -15,  10,   -24,  71,
        3,    -29,  58,   67,   -76,  -25,  38,   9,    3,    88,   57,   -3,
        -49,  45,   35,   -83,  52,   78,   69,   -47,  12,   51,   35,   20,
        -32,  9,    3,    -16,  61,   34,   -62,  -87,  -66,  58,   -100, 21,
        65,   -47,  35,   -2,   -29,  -101, 58,   -26,  34,   -9,   16,   -57,
        102,  -8,   -127, -76,  1,    12,   -44,  29,   27,   -52,  -21,  -96,
        -40,  -54,  40,   112,  -3,   -60,  -2,   84,   61,   107,  -20,  -105,
        -16,  -86,  -108, -54,  -62,  -22,  -64,  31,   -34,  33,   -57,  -37,
        -75,  51,   12,   -3,   -44,  -69,  -27,  -62,  -49,  2,    36,   25,
        -51,  -53,  -37,  -36,  -12,  -55,  -7,   60,   44,   -14,  -47,  -34,
        48,   -2,   -6,   59,   -10,  32,   -1,   22,   34,   50,   -19,  -46,
        71,   12,   -24,  -15,  -42,  -76,  26,   22,   3,    -10,  -25,  -51,
        -39,  44,   -8,   -35,  23,   -69,  5,    55,   127,  26,   37,   52,
        -101, -81,  -22,  39,   -74,  74,   -16,  -24,  -30,  14,   7,    -109,
        -20,  45,   42,   120,  -36,  53,   80,   -10,  24,   67,   97,   54,
        8,    15,   31,   56,   -3,   57,   -127, 2,    127,  -74,  -90,  -8,
        -84,  105,  -90,  43,   84,   24,   -35,  -2,   58,   -124, 26,   25,
        21,   26,   -2,   56,   27,   55,   60,   46,   -13,  -62,  9,    -7,
        -79,  11,   -94,  -91,  -54,  -11,  -96,  -66,  69,   -73,  -61,  -84,
        2,    -102, 41,   -127, -23,  -68,  -16,  59,   9,    1,    65,   -64,
        7,    28,   48,   -8,   -15,  44,   -2,   82,   -80,  25,   68,   39,
        55,   -71,  -18,  32,   -68,  40,   -126, -81,  -5,   -13,  -39,  30,
        -2,   -38,  -77,  49,   66,   17,   -113, -47,  -31,  -13,  -57,  47,
        -110, 59,   49,   -44,  -44,  -8,   -53,  -83,  -49,  9,    48,   48,
        -50,  49,   34,   74,   23,   -43,  107,  51,   -6,   -44,  -38,  -10,
        40,   -91,  111,  -93,  -35,  -20,  17,   -39,  -33,  -20,  -50,  -110,
        -2,   37,   110,  41,   -41,  111,  -64,  57,   88,   86,   127,  38,
        28,   -124, 18,   -4,   -103, -88,  19,   2,    61,   -85,  42,   45,
        110,  6,    -63,  -104, -65,  -3,   -97,  -119, -34,  81,   45,   -36,
        -71,  -56,  38,   40,   -54,  126,  -13,  97,   -84,  14,   -59,  48,
        -43,  -60,  -41,  -52,  13,   50,   -20,  -79,  -21,  -62,  78,   -4,
        2,    36,   67,   -25,  21,   11,   10,   -96,  -17,  47,   -68,  -6,
        53,   -17,  -96,  -69,  32,   0,    -6,   15,   -2,   16,   -55,  55,
        22,   -93,  -29,  -6,   4,    60,   -94,  -34,  75,   -34,  -68,  7,
        -127, -10,  15,   21,   27,   -74,  20,   -78,  -3,   -9,   62,   -18,
        -82,  22,   65,   -45,  -99,  15,   41,   -46,  14,   -16,  -121, 96,
        -11,  34,   -25,  -89,  -59,  35,   -67,  -30,  -29,  -60,  127,  64,
        62,   -19,  -22,  -58,  35,   -20,  36,   -21,  -57,  45,   -37,  -18,
        25,   46,   80,   -20,  20,   30,   -9,   88,   -83,  -32,  -7,   -56,
        -24,  30,   -127, -20,  21,   -8,   -21,  -70,  44,   53,   -9,   52,
        31,   53,   -126, 40,   -80,  -2,   72,   -62,  73,   5,    82,   -20,
        4,    48,   69,   55,   -17,  65,   -5,   49,   44,   -53,  -68,  70,
        -127, 9,    -96,  66,   15,   20,   9,    -64,  -54,  41,   83,   -104,
        120,  -36,  28,   2,    47,   9,    -117, -7,   14,   -88,  127,  -15,
        -6,   -34,  -44,  0,    -11,  105,  -14,  -5,   -9,   0,    65,   27,
        -41,  -85,  33,   37,   35,   56,   -104, 51,   2,    107,  -86,  18,
        -3,   -75,  -33,  -22,  27,   -103, 47,   -46,  -42,  25,   -97,  88,
        38,   -79,  88,   -61,  -95,  26,   -18,  -26,  57,   -32,  26,   -86,
        -48,  -21,  28,   36,   -127, 2,    69,   66,   -99,  55,   -28,  99,
        -3,   46,   16,   -2,   -5,   -83,  -19,  44,   39,   -59,  102,  -3,
        21,   -4,   7,    4,    -86,  60,   82,   -73,  78,   5,    9,    29,
        4,    -93,  -127, 66,   76,   47,   -26,  12,   -100, -6,   -47,  -58,
        48,   82,   -8,   19,   -86,  20,   -67,  119,  -19,  12,   55,   41,
        1,    -30,  17,   3,    -29,  46,   -14,  -35,  -22,  -24,  -97,  -28,
        46,   117,  44,   -51,  -44,  -110, -9,   -39,  -123, -18,  -30,  23,
        28,   -5,   78,   -117, -41,  31,   -72,  -4,   53,   18,   -41,  3,
        55,   113,  -22,  70,   -81,  -47,  1,    -1,   45,   -46,  117,  -82,
        43,   -15,  80,   1,    -50,  17,   -127, 117,  10,   -61,  -91,  98,
        3,    -84,  53,   5,    10,   -51,  -47,  -82,  68,   -40,  -80,  46,
        -40,  103,  51,   51,   30,   97,   -56,  -20,  -31,  -75,  -25,  -113,
        10,   99,   13,   -15,  -100, -12,  32,   -57,  -51,  -22,  -15,  -21,
        37,   -72,  -71,  29,   -27,  -51,  -33,  -58,  -48,  -24,  1,    66,
        -50,  -47,  -57,  17,   -14,  -6,   59,   10,   -69,  -70,  -88,  -13,
        62,   33,   82,   38,   27,   -127, -39,  -28,  16,   18,   -74,  59,
        38,   41,   1,    -12,  -23,  6,    5,    -45,  -39,  24,   87,   1,
        -28,  -20,  -51,  5,    -16,  45,   54,   -72,  41,   12,   -24,  -29,
        -42,  -33,  -26,  98,   41,   -81,  -60,  70,   13,   -38,  -48,  76,
        -33,  -17,  10,   69,   63,   31,   11,   15,   -16,  -10,  -3,   -33,
        70,   23,   17,   8,    52,   -69,  -127, 77,   0,    -45,  14,   7,
        -13,  -77,  51,   71,   -30,  40,   4,    15,   52,   13,   64,   -13,
        -52,  -90,  51,   14,   23,   6,    73,   -20,  -38,  50,   13,   62,
        -13,  39,   -48,  -117, -66,  62,   27,   -63,  -14,  -2,   11,   20,
        16,   -94,  11,   -49,  -16,  63,   76,   -36,  -68,  33,   19,   34,
        88,   -26,  55,   -19,  -64,  65,   -28,  -54,  19,   94,   15,   -45,
        78,   -9,   10,   -35,  37,   -127, 112,  85,   -68,  47,   -67,  -15,
        -38,  68,   66,   117,  15,   -23,  -41,  -32,  -62,  -38,  -9,   -37,
        -81,  -6,   -110, 52,   -84,  -21,  53,   -107, -100, -35,  16,   16,
        63,   69,   -29,  24,   69,   49,   28,   61,   -3,   -92,  -16,  -49,
        -28,  37,   23,   45,   -2,   -33,  -20,  -127, -77,  64,   -33,  12,
        -51,  35,   -42,  81,   30,   -22,  -13,  -19,  -20,  24,   7,    54,
        21,   -30,  8,    -49,  58,   13,   -29,  -29,  30,   -56,  16,   -57,
        47,   9,    0,    41,   -19,  6,    -52,  -79,  -35,  27,   -12,  -3,
        -23,  12,   -57,  -59,  -48,  -12,  -27,  98,   -9,   -44,  33,   14,
        34,   -42,  -11,  -121, 34,   18,   113,  27,   44,   54,   3,    69,
        35,   -5,   21,   -14,  -72,  90,   -25,  22,   27,   -70,  -54,  -14,
        -53,  19,   69,   -58,  -82,  15,   -84,  -8,   -25,  8,    127,  -6,
        97,   -18,  -42,  -49,  -36,  -91,  100,  -3,   36,   -3,   -10,  10,
        -3,   36,   59,   9,    -25,  -1,   -8,   -76,  19,   -55,  33,   63,
        37,   49,   -8,   -62,  50,   67,   67,   67,   -63,  -12,  45,   54,
        -54,  11,   64,   -94,  -2,   91,   24,   33,   27,   63,   -57,  58,
        86,   -33,  23,   38,   46,   6,    -40,  29,   38,   -19,  -64,  24,
        28,   -27,  -37,  -33,  7,    71,   13,   -18,  -126, -37,  38,   4,
        4,    74,   127,  -10,  47,   93,   -47,  63,   39,   44,   21,   45,
        8,    -42,  7,    -44,  -26,  -81,  2,    -16,  -38,  -74,  39,   15,
        -66,  -36,  46,   -71,  127,  14,   -94,  3,    -62,  11,   -83,  19,
        9,    0,    80,   -1,   -59,  74,   -90,  -88,  -46,  -26,  23,   -126,
        -44,  70,   5,    -99,  -72,  -89,  74,   -77,  -106, 69,   -15,  79,
        -33,  81,   -19,  -51,  -48,  23,   -43,  -41,  -11,  45,   83,   -126,
        83,   33,   80,   -43,  24,   36,   18,   -13,  64,   -17,  56,   -31,
        42,   36,   12,   56,   -60,  36,   90,   47,   -15,  2,    16,   58,
        -44,  -127, -79,  -16,  6,    35,   -22,  -57,  -16,  -26,  -100, 78,
        -16,  31,   31,   15,   -10,  -4,   -15,  -35,  -75,  31,   17,   -27,
        -84,  -27,  75,   36,   -76,  -39,  -18,  -59,  -16,  77,   52,   9,
        36,   -13,  14,   50,   -14,  79,   102,  39,   33,   -100, -59,  -124,
        -16,  -83,  52,   77,   -36,  20,   -115, 68,   36,   58,   13,   8,
        26,   45,   28,   -2,   7,    -30,  -86,  5,    2,    67,   1,    73,
        11,   11,   -98,  23,   40,   52,   3,    72,   97,   127,  -21,  46,
        -54,  3,    -88,  79,   -69,  8,    -24,  8,    -7,   -38,  52,   -22,
        -53,  -9,   8,    -81,  9,    -5,   10,   32,   57,   -23,  7,    -38,
        -60,  25,   17,   101,  3,    -24,  46,   18,   -85,  3,    -24,  7,
        18,   -46,  52,   13,   56,   10,   -6,   -88,  -13,  102,  -43,  -98,
        -33,  53,   127,  63,   2,    24,   -92,  95,   -62,  33,   27,   8,
        62,   17,   89,   16,   -47,  56,   -48,  -87,  60,   7,    99,   -93,
        40,   23,   17,   -26,  86,   -30,  -45,  -32,  25,   31,   -77,  14,
        -24,  22,   -15,  -12,  -13,  -86,  -26,  105,  -14,  -69,  -34,  -49,
        2,    94,   50,   -36,  -32,  -43,  3,    -13,  33,   -29,  26,   -8,
        -68,  69,   -33,  42,   13,   4,    127,  33,   41,   -35,  -51,  95,
        -74,  6,    -27,  98,   21,   18,   -7,   -13,  6,    -69,  53,   59,
        -20,  -70,  51,   -49,  -19,  -57,  -4,   -18,  -5,   -73,  45,   -37,
        5,    75,   7,    -6,   56,   94,   -29,  -12,  53,   7,    15,   -74,
        46,   -28,  68,   -7,   39,   -6,   -51,  -81,  -57,  -94,  -16,  -29,
        -19,  9,    -99,  -56,  52,   -73,  -18,  49,   -43,  9,    60,   11,
        11,   51,   0,    88,   -37,  -36,  -64,  -118, 74,   -87,  -80,  31,
        16,   -60,  -40,  -77,  -40,  -41,  -28,  -27,  48,   -83,  -79,  -62,
        68,   -44,  1,    41,   107,  36,   -17,  67,   71,   37,   -32,  -14,
        -65,  15,   -75,  70,   52,   62,   -127, -71,  77,   26,   -39,  0,
        -43,  -33,  -30,  -92,  80,   -61,  -18,  -58,  30,   -14,  -36,  53,
        35,   -1,   -18,  18,   -70,  -31,  -81,  11,   46,   -39,  51,   -125,
        78,   2,    -47,  -127, -68,  86,   92,   -36,  8,    5,    -101, 75,
        29,   -71,  -17,  90,   33,   59,   -92,  -64,  -60,  14,   -74,  -27,
        4,    57,   58,   -11,  46,   69,   -91,  53,   95,   -11,  -75,  -26,
        59,   -81,  43,   44,   -56,  18,   89,   -76,  47,   -62,  12,   0,
        68,   -10,  -22,  36,   -41,  16,   16,   3,    -34,  47,   84,   99,
        -54,  -49,  44,   14,   17,   6,    -29,  3,    12,   89,   45,   6,
        -37,  -10,  -72,  -41,  -35,  60,   -30,  52,   -86,  -60,  -13,  -1,
        -43,  -43,  -19,  2,    14,   63,   127,  20,   -21,  56,   86,   77,
        96,   3,    -41,  20,   45,   -56,  67,   -36,  125,  -52,  29,   -94,
        24,   -97,  -90,  -12,  -24,  27,   58,   -26,  -5,   80,   -38,  -22,
        -64,  14,   47,   -30,  88,   -44,  77,   -26,  -15,  -29,  -75,  -60,
        -9,   31,   28,   127,  29,   -21,  -32,  -56,  56,   28,   25,   16,
        -10,  -34,  -52,  46,   -31,  -50,  34,   -61,  -6,   -28,  16,   -49,
        -34,  25,   -60,  7,    32,   52,   -25,  81,   52,   -62,  19,   -70,
        -50,  -49,  -71,  -47,  18,   -65,  12,   -37,  -79,  27,   30,   -12,
        -11,  -41,  30,   -55,  -3,   52,   -45,  -64,  -44,  -28,  14,   -16,
        -61,  40,   29,   15,   -31,  -45,  1,    -47,  31,   -20,  -41,  -9,
        6,    12,   43,   -14,  16,   -23,  49,   -49,  72,   -20,  45,   -22,
        -7,   -9,   -23,  33,   -50,  -40,  83,   -16,  -29,  -7,   -42,  -127,
        -21,  12,   -4,   80,   38,   42,   -73,  -15,  -18,  50,   -17,  -115,
        -96,  -70,  -53,  86,   -81,  -43,  91,   -20,  116,  -31,  12,   -9,
        -19,  -127, -58,  11,   113,  82,   9,    49,   33,   4,    49,   50,
        -19,  -37,  27,   -44,  -97,  -12,  62,   -7,   -53,  -90,  73,   26,
        29,   17,   82,   -39,  69,   54,   48,   -62,  54,   -68,  22,   4,
        -35,  28,   26,   7,    62,   13,   62,   35,   44,   -56,  40,   -9,
        11,   -10,  -26,  -74,  75,   69,   -17,  36,   -19,  -5,   120,  -61,
        39,   -8,   13,   -93,  83,   -15,  -94,  -49,  54,   -18,  -86,  1,
        29,   -119, 62,   34,   29,   -35,  1,    72,   -82,  116,  107,  12,
        -74,  30,   -14,  4,    4,    -92,  -40,  -40,  6,    -57,  43,   -44,
        53,   118,  92,   -54,  -17,  -127, -43,  28,   22,   3,    38,   -58,
        -23,  -87,  55,   -20,  -71,  40,   -21,  -30,  -105, 6,    15,   -44,
        -38,  7,    -28,  1,    14,   64,   -42,  -39,  6,    -3,   -28,  26,
        -60,  11,   -1,   16,   -2,   71,   -24,  66,   65,   56,   24,   -9,
        22,   -67,  -127, 73,   -54,  -32,  -48,  -67,  -37,  -25,  -55,  60,
        54,   -116, -51,  -13,  -4,   -22,  -39,  -67,  53,   16,   20,   -80,
        -36,  -7,   19,   12,   -54,  -84,  29,   50,   -47,  -4,   67,   -48,
        -25,  51,   36,   53,   -28,  23,   -65,  19,   66,   24,   12,   -90,
        127,  -97,  11,   -20,  -65,  -29,  -11,  12,   -3,   101,  19,   59,
        0,    -5,   62,   -34,  -39,  99,   20,   -42,  3,    7,    -35,  -17,
        -47,  -42,  -17,  84,   -10,  42,   78,   66,   -35,  46,   2,    40,
        -67,  4,    -18,  5,    -33,  12,   -73,  -84,  -15,  2,    41,   -35,
        -65,  67,   -60,  16,   -16,  17,   47,   85,   56,   -14,  -37,  52,
        -64,  78,   -26,  -2,   -21,  40,   -15,  59,   43,   -29,  -47,  -24,
        -99,  -4,   -45,  -89,  12,   -45,  -3,   36,   -14,  -87,  -127, 23,
        -1,   -36,  -15,  -47,  -46,  5,    -6,   88,   7,    -53,  3,    -27,
        -38,  2,    -38,  10,   84,   66,   67,   -35,  -37,  88,   38,   25,
        107,  25,   63,   -44,  52,   -88,  -34,  2,    -19,  -13,  6,    -72,
        -10,  -58,  -11,  61,   -127, -12,  -28,  9,    32,   24,   -23,  34,
        -8,   29,   -78,  -53,  23,   16,   -42,  -44,  -56,  32,   -30,  53,
        43,   50,   -33,  -29,  95,   55,   24,   -66,  -14,  -16,  3,    -51,
        37,   4,    25,   -49,  29,   12,   7,    39,   -15,  -110, 32,   13,
        50,   66,   -27,  36,   -44,  62,   -10,  -57,  28,   11,   -8,   10,
        -1,   6,    1,    -22,  7,    44,   -32,  -67,  36,   4,    41,   61,
        23,   -9,   -127, -29,  -41,  -8,   3,    19,   -36,  -2,   1,    -13,
        21,   9,    37,   -13,  4,    10,   79,   -26,  -10,  -54,  19,   -45,
        9,    45,   47,   38,   -15,  -16,  78,   67,   51,   -40,  31,   10,
        36,   -26,  -77,  -39,  46,   -71,  51,   39,   -8,   -71,  22,   30,
        3,    -28,  -96,  83,   -93,  37,   -13,  -53,  -52,  40,   -69,  -1,
        2,    80,   30,   30,   -16,  -82,  55,   72,   -18,  39,   -112, -23,
        -97,  -45,  -30,  -47,  -102, 116,  127,  21,   22,   15,   22,   4,
        18,   35,   10,   -21,  -40,  -61,  5,    -9,   41,   -86,  -68,  -122,
        102,  50,   85,   -6,   62,   73,   68,   -44,  9,    18,   39,   27,
        -9,   33,   -38,  83,   -104, -25,  4,    58,   -16,  -6,   -127, 53,
        -109, 24,   -39,  15,   38,   87,   45,   29,   -40,  35,   36,   51,
        -68,  85,   4,    71,   -3,   -1,   -23,  24,   -14,  -10,  39,   -33,
        -3,   -71,  -31,  5,    7,    2,    4,    11,   -36,  -70,  -14,  -93,
        -77,  38,   -70,  31,   29,   -107, 13,   -16,  40,   -41,  -93,  3,
        -45,  -27,  61,   -37,  -105, 5,    81,   55,   -59,  -94,  -72,  20,
        -78,  -2,   63,   122,  -65,  -8,   -44,  -89,  52,   13,   7,    -43,
        -50,  -2,   -89,  18,   4,    8,    -43,  -44,  40,   -58,  -27,  23,
        2,    -9,   -127, -20,  -57,  49,   -72,  48,   -41,  61,   117,  -2,
        -61,  -59,  -71,  45,   18,   -85,  -12,  -57,  61,   -59,  -17,  20,
        33,   39,   -44,  2,    -95,  29,   -74,  -11,  -69,  -27,  58,   -9,
        -41,  -127, 26,   -34,  38,   -19,  83,   78,   -64,  -110, -93,  -15,
        21,   -42,  8,    -117, 26,   -28,  14,   -54,  5,    -38,  72,   -39,
        32,   -70,  -74,  31,   -92,  84,   -72,  59,   27,   -50,  82,   38,
        81,   49,   -23,  -19,  -117, -81,  81,   55,   -123, 46,   1,    -17,
        15,   31,   26,   -124, -84,  36,   31,   33,   -13,  51,   45,   -78,
        -18,  81,   44,   41,   -11,  -69,  -13,  -99,  32,   -32,  59,   -30,
        -36,  69,   61,   83,   61,   -105, 20,   16,   -27,  -92,  -41,  88,
        45,   -31,  80,   -53,  22,   76,   96,   57,   -26,  101,  -85,  14,
        -76,  -3,   -32,  -44,  -86,  -43,  -72,  70,   15,   -61,  -35,  -56,
        -22,  -127, 4,    -58,  50,   -67,  40,   117,  14,   -100, 43,   -74,
        37,   59,   -71,  10,   60,   46,   -61,  -48,  14,   -51,  -3,   -42,
        9,    -56,  -50,  38,   10,   -46,  -97,  -32,  8,    -36,  -13,  52,
        -18,  32,   108,  12,   24,   61,   -5,   48,   53,   -44,  43,   112,
        -47,  -46,  -35,  -31,  -18,  65,   28,   -31,  -17,  -55,  -2,   -49,
        88,   -25,  9,    6,    -52,  1,    -11,  -41,  25,   -41,  -127, 101,
        45,   -32,  52,   16,   97,   41,   3,    -84,  -22,  -108, 12,   -95,
        127,  2,    109,  32,   36,   10,   11,   10,   -105, 28,   -14,  -35,
        -11,  -77,  -117, -78,  -34,  71,   43,   -40,  -56,  -14,  -19,  -67,
        -9,   45,   19,   -32,  -89,  83,   -65,  72,   -2,   -70,  96,   88,
        33,   2,    39,   76,   49,   15,   -14,  11,   37,   -44,  19,   14,
        -14,  -46,  -41,  18,   -61,  -25,  -26,  41,   127,  -25,  -38,  -89,
        8,    -95,  -21,  8,    121,  -75,  6,    -3,   53,   -67,  -23,  -5,
        -73,  -43,  19,   44,   74,   79,   10,   -12,  8,    -45,  58,   23,
        -50,  59,   -66,  -27,  -72,  13,   122,  3,    82,   -81,  -27,  19,
        122,  89,   21,   -114, 37,   -60,  37,   -12,  56,   66,   27,   33,
        29,   24,   -75,  32,   38,   -27,  -72,  25,   105,  -101, 14,   -26,
        44,   -108, 7,    -28,  -18,  -52,  11,   47,   -4,   28,   -53,  41,
        -8,   12,   28,   -35,  -51,  -73,  -8,   -53,  -79,  14,   82,   -95,
        -1,   -32,  12,   62,   43,   127,  67,   33,   -45,  -23,  26,   9,
        -7,   -6,   93,   -22,  -7,   -65,  80,   -73,  -53,  -44,  -22,  37,
        -106, -62,  -32,  -14,  -64,  61,   39,   -8,   23,   22,   29,   60,
        83,   -54,  12,   -45,  -3,   26,   -52,  88,   -19,  34,   23,   -39,
        -38,  -11,  -67,  -6,   66,   25,   38,   -87,  -46,  39,   59,   -29,
        74,   -14,  -2,   -81,  26,   69,   -94,  89,   -61,  127,  -25,  44,
        -68,  -57,  -62,  25,   -27,  99,   102,  104,  97,   -12,  44,   35,
        -33,  55,   18,   70,   -40,  7,    97,   99,   11,   -77,  92,   -67,
        -48,  17,   -109, -94,  -23,  -106, 36,   -63,  -46,  -22,  -1,   21,
        22,   -18,  -43,  0,    79,   17,   17,   38,   -33,  -36,  -4,   50,
        45,   -2,   -37,  -18,  -4,   18,   50,   62,   -127, -19,  0,    -38,
        5,    57,   70,   -65,  -71,  78,   -105, -29,  17,   30,   -17,  -54,
        -41,  -9,   -13,  7,    -3,   -43,  -51,  49,   15,   38,   50,   5,
        29,   -2,   -42,  24,   61,   36,   -20,  7,    29,   -40,  3,    34,
        -45,  32,   -6,   50,   25,   -56,  -68,  14,   88,   -41,  -123, -30,
        -27,  -93,  -100, -8,   70,   -73,  43,   -70,  38,   109,  -36,  -77,
        -72,  107,  60,   -32,  -44,  -3,   12,   10,   33,   5,    68,   -79,
        113,  -95,  -22,  -25,  113,  19,   52,   40,   -10,  14,   47,   127,
        96,   -33,  53,   43,   -40,  -64,  29,   -64,  -55,  85,   -32,  -83,
        30,   45,   -15,  -50,  57,   -36,  -101, -6,   75,   28,   58,   -59,
        -33,  -72,  82,   -68,  -101, 85,   29,   -48,  11,   1,    -62,  -14,
        -70,  -22,  90,   11,   -115, 96,   2,    -123, -14,  2,    48,   -37,
        -78,  52,   -5,   47,   -37,  52,   -89,  -61,  18,   64,   37,   -100,
        -94,  5,    -26,  92,   46,   -35,  -77,  -17,  4,    -71,  85,   -23,
        127,  13,   -13,  20,   92,   -31,  -59,  -24,  6,    46,   23,   -6,
        67,   -127, -8,   66,   -3,   -62,  53,   4,    -38,  81,   24,   -8,
        -7,   -16,  17,   -38,  -51,  18,   -10,  0,    52,   11,   33,   -21,
        -59,  -44,  -31,  -52,  13,   -14,  -32,  30,   -54,  -15,  28,   -21,
        -8,   45,   -32,  -39,  -33,  -5,   -1,   29,   -50,  -19,  27,   -26,
        7,    11,   4,    -50,  -16,  -22,  -79,  23,   8,    46,   -78,  8,
        -24,  -26,  -1,   -86,  25,   -1,   -54,  -99,  -30,  38,   -23,  -41,
        27,   -9,   -6,   1,    29,   -28,  -87,  -28,  5,    -125, -49,  -21,
        25,   -30,  57,   -21,  22,   -63,  -37,  -66,  -36,  -36,  11,   -35,
        -5,   -50,  47,   26,   48,   -106, -59,  20,   -27,  34,   45,   -78,
        62,   -44,  -127, 74,   -31,  -11,  20,   24,   -57,  17,   16,   -56,
        -25,  -10,  44,   -46,  29,   -26,  35,   -127, -54,  9,    -77,  35,
        -37,  19,   21,   -43,  1,    -65,  30,   47,   -29,  -6,   34,   9,
        31,   69,   -15,  25,   -13,  -72,  5,    -19,  -77,  49,   50,   19,
        2,    51,   -28,  -15,  39,   -18,  -52,  36,   18,   13,   -107, 71,
        -20,  -50,  -48,  11,   50,   -13,  52,   39,   59,   12,   -61,  -53,
        -20,  91,   15,   -61,  -3,   -51,  61,   -15,  28,   4,    -12,  -90,
        -17,  35,   39,   -62,  127,  64,   -84,  15,   74,   -6,   3,    -56,
        -54,  -2,   -97,  -35,  65,   -45,  -15,  -50,  15,   50,   25,   12,
        36,   -23,  37,   -1,   -17,  26,   -42,  0,    37,   3,    -3,   2,
        67,   -17,  -8,   31,   44,   -3,   41,   -24,  11,   -32,  90,   -10,
        29,   -24,  -38,  -28,  15,   -31,  -28,  -20,  34,   17,   -27,  -18,
        39,   -77,  22,   -12,  -55,  -72,  -38,  40,   56,   25,   -16,  53,
        -80,  39,   -4,   -92,  -11,  71,   50,   77,   22,   89,   -69,  -6,
        16,   -70,  31,   -55,  -48,  38,   28,   -32,  -63,  -53,  -127, -31,
        -4,   -108, -17,  59,   10,   -53,  14,   2,    -20,  -67,  80,   -66,
        -101, -45,  41,   50,   -75,  -16,  -11,  -37,  -79,  91,   11,   -34,
        63,   33,   7,    -20,  -36,  19,   6,    -50,  58,   16,   83,   -64,
        -8,   1,    -90,  83,   -109, 4,    80,   30,   53,   -42,  -48,  28,
        -37,  3,    -57,  -36,  64,   59,   -90,  69,   -1,   107,  97,   -50,
        70,   50,   -61,  121,  -88,  4,    26,   39,   -127, -5,   -45,  -21,
        -8,   -78,  46,   8,    2,    26,   -47,  77,   80,   -60,  95,   108,
        20,   -60,  -88,  -52,  -3,   -64,  -122, -13,  0,    -5,   -127, -13,
        -7,   55,   0,    74,   -36,  56,   -31,  -45,  119,  52,   -17,  13,
        -24,  -75,  66,   -97,  -66,  -62,  -5,   6,    -5,   62,   10,   -64,
        46,   -58,  3,    -11,  90,   -72,  10,   44,   24,   -72,  13,   -19,
        84,   19,   38,   -56,  13,   24,   16,   68,   -52,  -14,  -23,  58,
        -37,  7,    -16,  -25,  -2,   1,    13,   1,    3,    -82,  -20,  57,
        -58,  -92,  9,    3,    6,    30,   0,    -58,  62,   43,   43,   -65,
        60,   2,    -59,  16,   7,    20,   -92,  56,   6,    108,  -44,  -113,
        2,    29,   -24,  34,   99,   33,   15,   65,   -39,  -76,  -70,  2,
        15,   -32,  -30,  86,   22,   72,   -25,  58,   -47,  -50,  47,   -117,
        -17,  -11,  46,   57,   52,   21,   -105, -45,  89,   -32,  -36,  20,
        -35,  39,   -127, -88,  -38,  74,   22,   -13,  19,   -18,  21,   52,
        14,   -13,  -22,  -10,  68,   -27,  13,   3,    26,   2,    51,   3,
        -51,  -25,  15,   5,    52,   5,    4,    35,   0,    21,   33,   -59,
        -34,  -38,  49,   46,   -36,  -69,  93,   80,   36,   -48,  32,   -34,
        62,   52,   47,   19,   127,  -6,   -58,  -19,  -68,  -88,  -30,  7,
        25,   36,   6,    -64,  2,    8,    8,    15,   44,   93,   19,   70,
        -48,  -41,  24,   -50,  18,   -74,  34,   -35,  -4,   -51,  32,   7,
        -30,  -21,  2,    29,   88,   -78,  13,   65,   11,   16,   -16,  -49,
        70,   49,   69,   -77,  -51,  -10,  23,   -26,  -57,  18,   -44,  -14,
        -37,  39,   -88,  23,   -57,  96,   -12,  14,   -86,  -114, -8,   -25,
        75,   33,   -66,  10,   -65,  75,   32,   -76,  127,  54,   24,   -38,
        6,    -96,  68,   17,   -53,  6,    -8,   5,    32,   -43,  95,   63,
        -20,  -49,  -13,  66,   -29,  52,   -56,  57,   5,    3,    48,   26,
        42,   71,   6,    8,    -69,  -46,  -1,   -35,  58,   20,   30,   83,
        -78,  48,   -127, -14,  -45,  -45,  -21,  86,   -78,  -7,   21,   1,
        -20,  23,   50,   -39,  93,   -8,   -41,  34,   -10,  -92,  6,    46,
        0,    14,   8,    3 };

const int32_t ds_cnn_s_layer_6_dw_conv2d_bias[64]
    = { 115,   1018,  -932,  235,   3218,  -879,  -1128, 2877,  2282,  -2333,
        -2799, 2335,  -551,  -1210, -1467, -944,  -1160, 2166,  -1017, -1167,
        1042,  -2525, -429,  -1192, 1561,  -1523, -899,  390,   -1812, -557,
        1592,  -1129, 501,   -1438, 1376,  -646,  1371,  1352,  2203,  -1121,
        -1270, 1892,  -1584, -480,  -816,  -2148, -158,  -1869, 2193,  2435,
        -459,  2134,  -1788, -1745, -1625, -2020, -552,  -1802, -1331, 1076,
        -1524, 1502,  1532,  -536 };

const int32_t ds_cnn_s_layer_6_dw_conv2d_output_mult[64]
    = { 1863426826, 2082125589, 1839100722, 2007730222, 1261650964, 1794699677,
        1228586356, 1503731128, 1340769847, 1383281486, 1780765307, 1995212906,
        1640831163, 1435948682, 1400994668, 1155371867, 2040086302, 1767303288,
        1995449082, 1441144549, 1626306353, 1866260936, 1307469063, 2099838772,
        1722429892, 1330141937, 1449528789, 1461219490, 1620401959, 1092903376,
        1497826734, 1091368234, 1957660959, 1350925405, 1724319298, 1294125132,
        1668817992, 1535378682, 1404773481, 1289755881, 1935932788, 1098453507,
        1648743051, 1172494611, 2131958677, 1375487685, 1603869655, 1545770415,
        1664566828, 1163401844, 1477279442, 1605522885, 1370291818, 2023317823,
        2113536967, 1642602481, 1509399347, 1481058254, 1105656868, 1683933241,
        1967344165, 1363678897, 1345493362, 1527348705 };

const int32_t ds_cnn_s_layer_6_dw_conv2d_output_shift[64]
    = { -7, -7, -7, -7, -7, -7, -6, -7, -7, -7, -7, -7, -6, -7, -7, -6,
        -7, -7, -7, -7, -6, -8, -7, -7, -7, -7, -6, -7, -7, -6, -7, -6,
        -7, -7, -7, -6, -7, -7, -7, -7, -7, -6, -7, -6, -7, -7, -7, -7,
        -7, -7, -7, -7, -7, -7, -7, -7, -7, -7, -6, -7, -7, -7, -7, -7 };

const int8_t ds_cnn_s_layer_6_dw_conv2d_weights[576] = {
    118,  -28,  -16,  49,   -127, -38,  127,  -127, -116, 53,   89,   -74,
    92,   84,   102,  127,  64,   -108, 127,  69,   -34,  105,  65,   33,
    19,   81,   -21,  73,   127,  -118, -69,  127,  -70,  94,   79,   15,
    38,   23,   16,   127,  127,  -11,  6,    12,   127,  87,   127,  103,
    -37,  -98,  -13,  -127, 125,  64,   75,   -35,  123,  77,   127,  -82,
    127,  122,  -62,  116,  80,   20,   110,  -46,  6,    -71,  72,   -119,
    -127, 86,   51,   -60,  127,  -52,  76,   120,  99,   -25,  11,   127,
    -127, -19,  -86,  12,   -95,  34,   47,   -4,   -61,  3,    -86,  -18,
    30,   -36,  -90,  -3,   5,    -127, -79,  117,  23,   14,   100,  -70,
    3,    48,   -25,  73,   -39,  40,   -73,  -35,  -19,  -21,  21,   3,
    63,   -17,  36,   19,   1,    -16,  39,   52,   -127, 5,    -126, 127,
    -71,  49,   33,   -99,  115,  127,  127,  -43,  -31,  127,  121,  -10,
    60,   -11,  -1,   111,  -13,  22,   20,   33,   -127, 73,   -11,  -109,
    28,   127,  -102, 69,   -84,  50,   -67,  -63,  -111, 72,   -64,  96,
    36,   45,   64,   35,   -30,  38,   -82,  127,  -98,  -34,  59,   -15,
    54,   96,   48,   54,   75,   127,  58,   55,   40,   -127, 12,   -46,
    46,   -66,  68,   -118, -98,  -106, 32,   -22,  -68,  112,  61,   -69,
    67,   69,   127,  71,   42,   -42,  68,   -29,  -17,  114,  104,  79,
    22,   127,  -10,  62,   104,  14,   -73,  27,   -48,  47,   -20,  73,
    15,   -5,   27,   23,   33,   -61,  108,  -4,   -20,  63,   111,  96,
    -46,  -94,  35,   -37,  38,   44,   53,   -2,   24,   -43,  45,   -36,
    94,   78,   -127, 73,   -11,  36,   127,  28,   -15,  61,   55,   -22,
    -19,  13,   50,   -13,  18,   -103, 18,   -1,   -23,  -38,  -42,  54,
    -55,  63,   -98,  -10,  38,   28,   65,   -68,  45,   -13,  14,   68,
    89,   78,   4,    18,   -74,  -80,  -65,  89,   66,   -26,  9,    -88,
    53,   35,   -68,  51,   -33,  23,   -60,  -9,   -22,  27,   32,   9,
    117,  92,   33,   31,   9,    -74,  95,   69,   -85,  -42,  24,   51,
    -83,  100,  -5,   -89,  31,   7,    71,   -63,  -46,  91,   51,   76,
    59,   -17,  40,   69,   4,    127,  118,  30,   -10,  60,   11,   -127,
    64,   16,   -6,   75,   -127, 49,   -56,  -55,  -127, 55,   -127, -15,
    -76,  -105, 40,   81,   -63,  45,   3,    25,   -127, -85,  101,  -21,
    20,   56,   66,   114,  -78,  93,   -14,  -32,  33,   -107, -116, -34,
    23,   -82,  113,  -60,  -65,  127,  22,   25,   -70,  101,  53,   -127,
    -29,  16,   127,  57,   127,  -127, 25,   -15,  43,   39,   65,   127,
    -112, 17,   49,   99,   115,  4,    -39,  63,   -47,  71,   -127, 127,
    10,   -2,   -53,  -4,   -3,   -21,  127,  57,   -13,  16,   81,   41,
    -40,  -127, 13,   -82,  119,  127,  127,  109,  -127, -90,  68,   -127,
    42,   -7,   -104, 72,   6,    33,   -72,  -11,  -105, 64,   -30,  -60,
    -113, 71,   32,   -35,  66,   -21,  72,   -59,  -80,  -69,  13,   -59,
    -17,  47,   -127, 67,   -47,  -28,  127,  -80,  11,   45,   10,   4,
    113,  127,  -58,  32,   -79,  -113, -101, -103, 23,   -116, -38,  12,
    105,  127,  -97,  3,    0,    11,   -48,  10,   93,   24,   -45,  127,
    4,    120,  -6,   -19,  47,   -116, 5,    28,   -31,  -127, 98,   -70,
    -117, 28,   -25,  -62,  33,   28,   115,  -61,  -76,  50,   -95,  127,
    99,   -34,  19,   -55,  -42,  93,   121,  52,   2,    -31,  51,   -12,
    117,  36,   -127, 43,   -75,  -10,  52,   -72,  -124, 45,   -89,  -62,
    71,   -127, 77,   127,  -31,  92,   75,   70,   -94,  -75,  127,  -47,
    127,  52,   28,   79,   -87,  77,   10,   -87,  36,   -48,  -102, -127
};

const int32_t ds_cnn_s_layer_7_conv2d_bias[64]
    = { -372, 2253,  -845,  3195, -1492, -453,  -532,  1284, -965, 214,  955,
        3390, -2022, 697,   1494, 374,   -1896, -1503, -68,  -290, -400, -41,
        1836, 552,   -502,  288,  1567,  932,   -708,  1570, -878, 1268, 506,
        1203, -242,  183,   1367, 712,   1434,  763,   1199, 1899, 2944, 2105,
        1107, 447,   601,   108,  -1072, 390,   584,   -509, 425,  2166, 1638,
        2592, 34,    -1854, 2495, 1166,  131,   2078,  4235, 2042 };

const int32_t ds_cnn_s_layer_7_conv2d_output_mult[64]
    = { 1768151177, 1563686915, 1973196303, 1344120178, 2006886438, 1411790879,
        1827399344, 1756533889, 2026635826, 1335407213, 1085635529, 1721682026,
        2138742652, 2115508077, 2040576572, 1977262354, 1330179433, 1379552906,
        2058583367, 1493983189, 1963902473, 2053355588, 1610156065, 1273835588,
        1318562146, 1954027779, 1281967690, 1841920953, 1493402324, 1550907898,
        1300555350, 1713549925, 1814620327, 1726328941, 1740269686, 1815782056,
        1489917138, 1854699970, 1919175916, 1460873919, 1619449895, 1336568941,
        2020246318, 1110903129, 1844825275, 1289809359, 2049870402, 1719939433,
        1228818599, 1848310461, 1687411028, 1318562146, 1845406140, 1869221579,
        1135589866, 1876772816, 1354575737, 1771055499, 1462035648, 1180025991,
        1960998151, 1157662712, 1922661102, 1429507242 };

const int32_t ds_cnn_s_layer_7_conv2d_output_shift[64]
    = { -8, -8, -8, -8, -8, -7, -8, -8, -8, -8, -7, -8, -8, -8, -8, -8,
        -8, -8, -9, -8, -8, -8, -8, -8, -8, -8, -8, -8, -8, -8, -7, -8,
        -8, -8, -8, -8, -8, -8, -8, -8, -8, -8, -8, -7, -8, -7, -8, -8,
        -7, -8, -8, -8, -8, -8, -7, -8, -7, -8, -8, -7, -8, -7, -8, -8 };

const int8_t ds_cnn_s_layer_7_conv2d_weights[4096]
    = { 4,    40,   49,   22,   39,   -12,  26,   27,   8,    -12,  -127, 16,
        65,   75,   49,   2,    5,    60,   -63,  -42,  -65,  72,   -48,  -5,
        55,   -23,  -39,  3,    -92,  -31,  14,   -27,  19,   -47,  57,   -10,
        -18,  -13,  -66,  2,    41,   9,    -43,  -19,  -8,   -26,  47,   10,
        -43,  100,  -3,   -33,  -36,  63,   -3,   -35,  -47,  1,    -99,  -12,
        -6,   9,    35,   53,   -52,  -88,  -19,  -80,  51,   51,   44,   13,
        68,   -21,  82,   30,   31,   -42,  -22,  -37,  -69,  -104, -105, -38,
        -49,  41,   -113, 23,   -78,  -54,  30,   -83,  -34,  22,   47,   86,
        -121, 9,    19,   -115, -43,  -29,  -19,  60,   52,   22,   -27,  66,
        117,  36,   12,   9,    -127, 23,   -42,  23,   124,  -13,  25,   -44,
        -48,  1,    -42,  -37,  -74,  94,   88,   -42,  64,   -70,  -11,  98,
        23,   -29,  -10,  13,   -44,  10,   -8,   117,  -82,  3,    1,    21,
        -45,  127,  0,    -72,  -7,   -49,  52,   -3,   34,   -65,  48,   -53,
        -22,  2,    -92,  -58,  -22,  20,   19,   113,  -33,  44,   -61,  13,
